digraph Tree {
node [shape=box, style="filled, rounded", color="black", fontname=helvetica] ;
edge [fontname=helvetica] ;
0 [label="case_mil_percMax_1 <= 36.263\nmse = 420.052\nsamples = 295\nvalue = [[22.103]\n[22.095]]", fillcolor="#ffffff"] ;
1 [label="case_mil_percMax_1 <= 11.021\nmse = 60.787\nsamples = 240\nvalue = [[13.703]\n[13.815]]", fillcolor="#e99356"] ;
0 -> 1 [labeldistance=2.5, labelangle=45, headlabel="True"] ;
2 [label="case_mil_percMax_5 <= 1.959\nmse = 14.961\nsamples = 103\nvalue = [[6.314]\n[6.533]]", fillcolor="#e68540"] ;
1 -> 2 ;
3 [label="tran_7 <= -9.5\nmse = 2.027\nsamples = 27\nvalue = [[0.871]\n[0.927]]", fillcolor="#e5823a"] ;
2 -> 3 ;
4 [label="prks_2 <= 0.0\nmse = 0.52\nsamples = 6\nvalue = [[3.21]\n[3.303]]", fillcolor="#e58139"] ;
3 -> 4 ;
5 [label="tran_7 <= -17.5\nmse = 0.082\nsamples = 3\nvalue = [[3.321]\n[3.698]]", fillcolor="#e58139"] ;
4 -> 5 ;
6 [label="dayow_1 <= 3.0\nmse = 0.026\nsamples = 2\nvalue = [[3.689]\n[3.656]]", fillcolor="#e58139"] ;
5 -> 6 ;
7 [label="mse = 0.0\nsamples = 1\nvalue = [[3.534]\n[4.021]]", fillcolor="#e58139"] ;
6 -> 7 ;
8 [label="mse = -0.0\nsamples = 1\nvalue = [[3.74]\n[3.534]]", fillcolor="#e58139"] ;
6 -> 8 ;
9 [label="mse = 0.0\nsamples = 1\nvalue = [[2.953]\n[3.74]]", fillcolor="#e58139"] ;
5 -> 9 ;
10 [label="case_mil_percMax_4 <= 4.123\nmse = 0.864\nsamples = 3\nvalue = [[2.914]\n[2.248]]", fillcolor="#e58139"] ;
4 -> 10 ;
11 [label="rtrc_5 <= -8.5\nmse = 0.117\nsamples = 2\nvalue = [[2.057]\n[2.474]]", fillcolor="#e58139"] ;
10 -> 11 ;
12 [label="mse = -0.0\nsamples = 1\nvalue = [[2.119]\n[1.995]]", fillcolor="#e58139"] ;
11 -> 12 ;
13 [label="mse = 0.0\nsamples = 1\nvalue = [[1.995]\n[2.953]]", fillcolor="#e58139"] ;
11 -> 13 ;
14 [label="mse = 0.0\nsamples = 1\nvalue = [[4.629]\n[1.796]]", fillcolor="#e58139"] ;
10 -> 14 ;
15 [label="case_mil_percMax_2 <= 0.232\nmse = 0.06\nsamples = 21\nvalue = [[0.091]\n[0.136]]", fillcolor="#e58139"] ;
3 -> 15 ;
16 [label="work_1 <= -0.5\nmse = 0.007\nsamples = 19\nvalue = [[0.039]\n[0.059]]", fillcolor="#e58139"] ;
15 -> 16 ;
17 [label="case_mil_percMax_4 <= 0.092\nmse = 0.012\nsamples = 5\nvalue = [[0.162]\n[0.235]]", fillcolor="#e58139"] ;
16 -> 17 ;
18 [label="case_mil_percMax_1 <= 0.178\nmse = 0.004\nsamples = 4\nvalue = [[0.183]\n[0.172]]", fillcolor="#e58139"] ;
17 -> 18 ;
19 [label="prks_3 <= 24.5\nmse = 0.002\nsamples = 3\nvalue = [[0.159]\n[0.203]]", fillcolor="#e58139"] ;
18 -> 19 ;
20 [label="mse = 0.0\nsamples = 1\nvalue = [[0.211]\n[0.253]]", fillcolor="#e58139"] ;
19 -> 20 ;
21 [label="tran_3 <= 2.0\nmse = 0.001\nsamples = 2\nvalue = [[0.134]\n[0.178]]", fillcolor="#e58139"] ;
19 -> 21 ;
22 [label="mse = -0.0\nsamples = 1\nvalue = [[0.146]\n[0.211]]", fillcolor="#e58139"] ;
21 -> 22 ;
23 [label="mse = -0.0\nsamples = 1\nvalue = [[0.122]\n[0.146]]", fillcolor="#e58139"] ;
21 -> 23 ;
24 [label="mse = -0.0\nsamples = 1\nvalue = [[0.253]\n[0.078]]", fillcolor="#e58139"] ;
18 -> 24 ;
25 [label="mse = 0.0\nsamples = 1\nvalue = [[0.078]\n[0.488]]", fillcolor="#e58139"] ;
17 -> 25 ;
26 [label="case_mil_percMax_6 <= 0.002\nmse = 0.001\nsamples = 14\nvalue = [[0.014]\n[0.023]]", fillcolor="#e58139"] ;
16 -> 26 ;
27 [label="rtrc_6 <= 7.5\nmse = 0.0\nsamples = 10\nvalue = [[0.005]\n[0.004]]", fillcolor="#e58139"] ;
26 -> 27 ;
28 [label="rtrc_1 <= 10.5\nmse = 0.0\nsamples = 9\nvalue = [[0.001]\n[0.001]]", fillcolor="#e58139"] ;
27 -> 28 ;
29 [label="grph_6 <= 2.0\nmse = 0.0\nsamples = 8\nvalue = [[0.0]\n[0.0]]", fillcolor="#e58139"] ;
28 -> 29 ;
30 [label="dayow_2 <= 0.5\nmse = 0.0\nsamples = 6\nvalue = [[0.0]\n[0.0]]", fillcolor="#e58139"] ;
29 -> 30 ;
31 [label="mse = -0.0\nsamples = 1\nvalue = [[0.0]\n[0.0]]", fillcolor="#e58139"] ;
30 -> 31 ;
32 [label="prks_6 <= 5.0\nmse = 0.0\nsamples = 5\nvalue = [[0.0]\n[0.0]]", fillcolor="#e58139"] ;
30 -> 32 ;
33 [label="mse = 0.0\nsamples = 1\nvalue = [[0.0]\n[0.0]]", fillcolor="#e58139"] ;
32 -> 33 ;
34 [label="mse = 0.0\nsamples = 4\nvalue = [[0.0]\n[0.0]]", fillcolor="#e58139"] ;
32 -> 34 ;
35 [label="grph_3 <= 1.5\nmse = 0.0\nsamples = 2\nvalue = [[0.001]\n[0.002]]", fillcolor="#e58139"] ;
29 -> 35 ;
36 [label="mse = 0.0\nsamples = 1\nvalue = [[0.0]\n[0.003]]", fillcolor="#e58139"] ;
35 -> 36 ;
37 [label="mse = -0.0\nsamples = 1\nvalue = [[0.003]\n[0.002]]", fillcolor="#e58139"] ;
35 -> 37 ;
38 [label="mse = 0.0\nsamples = 1\nvalue = [[0.008]\n[0.006]]", fillcolor="#e58139"] ;
28 -> 38 ;
39 [label="mse = -0.0\nsamples = 1\nvalue = [[0.026]\n[0.018]]", fillcolor="#e58139"] ;
27 -> 39 ;
40 [label="rtrc_4 <= 6.0\nmse = 0.0\nsamples = 4\nvalue = [[0.029]\n[0.058]]", fillcolor="#e58139"] ;
26 -> 40 ;
41 [label="mse = -0.0\nsamples = 1\nvalue = [[0.063]\n[0.122]]", fillcolor="#e58139"] ;
40 -> 41 ;
42 [label="dayow_7 <= 5.0\nmse = 0.0\nsamples = 3\nvalue = [[0.025]\n[0.05]]", fillcolor="#e58139"] ;
40 -> 42 ;
43 [label="rtrc_7 <= 7.5\nmse = 0.0\nsamples = 2\nvalue = [[0.02]\n[0.058]]", fillcolor="#e58139"] ;
42 -> 43 ;
44 [label="mse = 0.0\nsamples = 1\nvalue = [[0.025]\n[0.063]]", fillcolor="#e58139"] ;
43 -> 44 ;
45 [label="mse = -0.0\nsamples = 1\nvalue = [[0.018]\n[0.055]]", fillcolor="#e58139"] ;
43 -> 45 ;
46 [label="mse = 0.0\nsamples = 1\nvalue = [[0.039]\n[0.025]]", fillcolor="#e58139"] ;
42 -> 46 ;
47 [label="tran_3 <= -11.5\nmse = 0.105\nsamples = 2\nvalue = [[0.62]\n[0.905]]", fillcolor="#e58139"] ;
15 -> 47 ;
48 [label="mse = 0.0\nsamples = 1\nvalue = [[0.884]\n[1.496]]", fillcolor="#e58139"] ;
47 -> 48 ;
49 [label="mse = 0.0\nsamples = 1\nvalue = [[0.488]\n[0.61]]", fillcolor="#e58139"] ;
47 -> 49 ;
50 [label="case_mil_percMax_1 <= 8.456\nmse = 4.283\nsamples = 76\nvalue = [[8.327]\n[8.606]]", fillcolor="#e5823b"] ;
2 -> 50 ;
51 [label="case_mil_percMax_7 <= 8.611\nmse = 2.551\nsamples = 44\nvalue = [[7.081]\n[7.6]]", fillcolor="#e5823a"] ;
50 -> 51 ;
52 [label="vac_6 <= 23.595\nmse = 1.534\nsamples = 35\nvalue = [[6.528]\n[7.219]]", fillcolor="#e5813a"] ;
51 -> 52 ;
53 [label="tran_2 <= -50.0\nmse = 0.973\nsamples = 31\nvalue = [[6.917]\n[7.228]]", fillcolor="#e58139"] ;
52 -> 53 ;
54 [label="mse = -0.0\nsamples = 1\nvalue = [[8.758]\n[10.745]]", fillcolor="#e58139"] ;
53 -> 54 ;
55 [label="resi_6 <= 9.0\nmse = 0.626\nsamples = 30\nvalue = [[6.83]\n[7.061]]", fillcolor="#e58139"] ;
53 -> 55 ;
56 [label="work_4 <= -57.5\nmse = 0.412\nsamples = 5\nvalue = [[7.881]\n[6.589]]", fillcolor="#e58139"] ;
55 -> 56 ;
57 [label="mse = 0.0\nsamples = 1\nvalue = [[8.147]\n[7.865]]", fillcolor="#e58139"] ;
56 -> 57 ;
58 [label="case_mil_percMax_1 <= 8.359\nmse = 0.172\nsamples = 4\nvalue = [[7.792]\n[6.163]]", fillcolor="#e58139"] ;
56 -> 58 ;
59 [label="work_5 <= -39.0\nmse = 0.03\nsamples = 3\nvalue = [[8.17]\n[6.261]]", fillcolor="#e58139"] ;
58 -> 59 ;
60 [label="resi_6 <= 6.0\nmse = 0.008\nsamples = 2\nvalue = [[7.949]\n[6.219]]", fillcolor="#e58139"] ;
59 -> 60 ;
61 [label="mse = -0.0\nsamples = 1\nvalue = [[7.865]\n[6.318]]", fillcolor="#e58139"] ;
60 -> 61 ;
62 [label="mse = 0.0\nsamples = 1\nvalue = [[8.033]\n[6.12]]", fillcolor="#e58139"] ;
60 -> 62 ;
63 [label="mse = -0.0\nsamples = 1\nvalue = [[8.391]\n[6.304]]", fillcolor="#e58139"] ;
59 -> 63 ;
64 [label="mse = -0.0\nsamples = 1\nvalue = [[7.037]\n[5.967]]", fillcolor="#e58139"] ;
58 -> 64 ;
65 [label="prks_3 <= 52.0\nmse = 0.484\nsamples = 25\nvalue = [[6.582]\n[7.172]]", fillcolor="#e58139"] ;
55 -> 65 ;
66 [label="work_5 <= -42.0\nmse = 0.408\nsamples = 21\nvalue = [[6.457]\n[6.988]]", fillcolor="#e58139"] ;
65 -> 66 ;
67 [label="resi_7 <= 16.5\nmse = 0.402\nsamples = 8\nvalue = [[6.75]\n[7.717]]", fillcolor="#e58139"] ;
66 -> 67 ;
68 [label="grph_1 <= 4.0\nmse = 0.128\nsamples = 5\nvalue = [[6.478]\n[7.332]]", fillcolor="#e58139"] ;
67 -> 68 ;
69 [label="prks_7 <= 8.0\nmse = 0.065\nsamples = 4\nvalue = [[6.515]\n[7.484]]", fillcolor="#e58139"] ;
68 -> 69 ;
70 [label="dayow_3 <= 3.5\nmse = 0.012\nsamples = 3\nvalue = [[6.281]\n[7.444]]", fillcolor="#e58139"] ;
69 -> 70 ;
71 [label="tran_4 <= -43.5\nmse = 0.004\nsamples = 2\nvalue = [[6.233]\n[7.382]]", fillcolor="#e58139"] ;
70 -> 71 ;
72 [label="mse = 0.0\nsamples = 1\nvalue = [[6.29]\n[7.347]]", fillcolor="#e58139"] ;
71 -> 72 ;
73 [label="mse = 0.0\nsamples = 1\nvalue = [[6.12]\n[7.452]]", fillcolor="#e58139"] ;
71 -> 73 ;
74 [label="mse = 0.0\nsamples = 1\nvalue = [[6.423]\n[7.631]]", fillcolor="#e58139"] ;
70 -> 74 ;
75 [label="mse = 0.0\nsamples = 1\nvalue = [[6.982]\n[7.563]]", fillcolor="#e58139"] ;
69 -> 75 ;
76 [label="mse = -0.0\nsamples = 1\nvalue = [[6.259]\n[6.423]]", fillcolor="#e58139"] ;
68 -> 76 ;
77 [label="case_mil_percMax_1 <= 7.863\nmse = 0.176\nsamples = 3\nvalue = [[7.386]\n[8.615]]", fillcolor="#e58139"] ;
67 -> 77 ;
78 [label="work_1 <= -40.5\nmse = 0.041\nsamples = 2\nvalue = [[7.074]\n[8.842]]", fillcolor="#e58139"] ;
77 -> 78 ;
79 [label="mse = -0.0\nsamples = 1\nvalue = [[6.801]\n[8.925]]", fillcolor="#e58139"] ;
78 -> 79 ;
80 [label="mse = 0.0\nsamples = 1\nvalue = [[7.347]\n[8.758]]", fillcolor="#e58139"] ;
78 -> 80 ;
81 [label="mse = -0.0\nsamples = 1\nvalue = [[8.01]\n[8.163]]", fillcolor="#e58139"] ;
77 -> 81 ;
82 [label="work_3 <= -18.5\nmse = 0.144\nsamples = 13\nvalue = [[6.295]\n[6.583]]", fillcolor="#e58139"] ;
66 -> 82 ;
83 [label="prks_7 <= 58.5\nmse = 0.09\nsamples = 10\nvalue = [[6.215]\n[6.366]]", fillcolor="#e58139"] ;
82 -> 83 ;
84 [label="grph_6 <= -1.0\nmse = 0.058\nsamples = 9\nvalue = [[6.253]\n[6.295]]", fillcolor="#e58139"] ;
83 -> 84 ;
85 [label="grph_6 <= -6.0\nmse = 0.047\nsamples = 7\nvalue = [[6.379]\n[6.335]]", fillcolor="#e58139"] ;
84 -> 85 ;
86 [label="rtrc_1 <= -25.5\nmse = 0.035\nsamples = 3\nvalue = [[6.511]\n[6.099]]", fillcolor="#e58139"] ;
85 -> 86 ;
87 [label="resi_5 <= 16.0\nmse = 0.004\nsamples = 2\nvalue = [[6.608]\n[6.251]]", fillcolor="#e58139"] ;
86 -> 87 ;
88 [label="mse = 0.0\nsamples = 1\nvalue = [[6.682]\n[6.211]]", fillcolor="#e58139"] ;
87 -> 88 ;
89 [label="mse = -0.0\nsamples = 1\nvalue = [[6.533]\n[6.29]]", fillcolor="#e58139"] ;
87 -> 89 ;
90 [label="mse = 0.0\nsamples = 1\nvalue = [[6.318]\n[5.796]]", fillcolor="#e58139"] ;
86 -> 90 ;
91 [label="work_3 <= -28.5\nmse = 0.02\nsamples = 4\nvalue = [[6.3]\n[6.477]]", fillcolor="#e58139"] ;
85 -> 91 ;
92 [label="grph_1 <= 0.0\nmse = 0.001\nsamples = 3\nvalue = [[6.239]\n[6.552]]", fillcolor="#e58139"] ;
91 -> 92 ;
93 [label="tran_1 <= -40.5\nmse = 0.0\nsamples = 2\nvalue = [[6.217]\n[6.537]]", fillcolor="#e58139"] ;
92 -> 93 ;
94 [label="mse = 0.0\nsamples = 1\nvalue = [[6.22]\n[6.533]]", fillcolor="#e58139"] ;
93 -> 94 ;
95 [label="mse = -0.0\nsamples = 1\nvalue = [[6.211]\n[6.544]]", fillcolor="#e58139"] ;
93 -> 95 ;
96 [label="mse = 0.0\nsamples = 1\nvalue = [[6.304]\n[6.599]]", fillcolor="#e58139"] ;
92 -> 96 ;
97 [label="mse = 0.0\nsamples = 1\nvalue = [[6.544]\n[6.174]]", fillcolor="#e58139"] ;
91 -> 97 ;
98 [label="work_1 <= -31.0\nmse = 0.002\nsamples = 2\nvalue = [[5.916]\n[6.186]]", fillcolor="#e58139"] ;
84 -> 98 ;
99 [label="mse = -0.0\nsamples = 1\nvalue = [[5.943]\n[6.22]]", fillcolor="#e58139"] ;
98 -> 99 ;
100 [label="mse = 0.0\nsamples = 1\nvalue = [[5.863]\n[6.118]]", fillcolor="#e58139"] ;
98 -> 100 ;
101 [label="mse = 0.0\nsamples = 1\nvalue = [[5.796]\n[7.156]]", fillcolor="#e58139"] ;
83 -> 101 ;
102 [label="prks_7 <= 30.0\nmse = 0.093\nsamples = 3\nvalue = [[6.455]\n[7.017]]", fillcolor="#e58139"] ;
82 -> 102 ;
103 [label="mse = 0.0\nsamples = 1\nvalue = [[7.156]\n[6.609]]", fillcolor="#e58139"] ;
102 -> 103 ;
104 [label="work_1 <= -36.5\nmse = 0.033\nsamples = 2\nvalue = [[6.314]\n[7.099]]", fillcolor="#e58139"] ;
102 -> 104 ;
105 [label="mse = 0.0\nsamples = 1\nvalue = [[6.609]\n[7.208]]", fillcolor="#e58139"] ;
104 -> 105 ;
106 [label="mse = -0.0\nsamples = 1\nvalue = [[6.118]\n[7.026]]", fillcolor="#e58139"] ;
104 -> 106 ;
107 [label="rtrc_1 <= -15.0\nmse = 0.188\nsamples = 4\nvalue = [[7.164]\n[8.027]]", fillcolor="#e58139"] ;
65 -> 107 ;
108 [label="grph_1 <= -3.0\nmse = 0.049\nsamples = 3\nvalue = [[7.021]\n[7.831]]", fillcolor="#e58139"] ;
107 -> 108 ;
109 [label="mse = 0.0\nsamples = 1\nvalue = [[7.429]\n[8.147]]", fillcolor="#e58139"] ;
108 -> 109 ;
110 [label="dayow_4 <= 4.0\nmse = 0.02\nsamples = 2\nvalue = [[6.919]\n[7.752]]", fillcolor="#e58139"] ;
108 -> 110 ;
111 [label="mse = 0.0\nsamples = 1\nvalue = [[6.599]\n[7.877]]", fillcolor="#e58139"] ;
110 -> 111 ;
112 [label="mse = -0.0\nsamples = 1\nvalue = [[7.026]\n[7.71]]", fillcolor="#e58139"] ;
110 -> 112 ;
113 [label="mse = -0.0\nsamples = 1\nvalue = [[7.877]\n[9.01]]", fillcolor="#e58139"] ;
107 -> 113 ;
114 [label="tran_2 <= -11.0\nmse = 1.591\nsamples = 4\nvalue = [[4.084]\n[7.165]]", fillcolor="#e5813a"] ;
52 -> 114 ;
115 [label="prks_1 <= 61.0\nmse = 0.608\nsamples = 2\nvalue = [[3.692]\n[8.354]]", fillcolor="#e58139"] ;
114 -> 115 ;
116 [label="mse = 0.0\nsamples = 1\nvalue = [[1.922]\n[7.636]]", fillcolor="#e58139"] ;
115 -> 116 ;
117 [label="mse = 0.0\nsamples = 1\nvalue = [[4.282]\n[8.593]]", fillcolor="#e58139"] ;
115 -> 117 ;
118 [label="grph_6 <= 6.5\nmse = 0.467\nsamples = 2\nvalue = [[4.606]\n[5.581]]", fillcolor="#e58139"] ;
114 -> 118 ;
119 [label="mse = 0.0\nsamples = 1\nvalue = [[4.33]\n[6.206]]", fillcolor="#e58139"] ;
118 -> 119 ;
120 [label="mse = 0.0\nsamples = 1\nvalue = [[5.157]\n[4.33]]", fillcolor="#e58139"] ;
118 -> 120 ;
121 [label="case_mil_percMax_7 <= 13.088\nmse = 1.847\nsamples = 9\nvalue = [[9.431]\n[9.218]]", fillcolor="#e5823a"] ;
51 -> 121 ;
122 [label="case_mil_percMax_6 <= 9.463\nmse = 0.49\nsamples = 7\nvalue = [[8.846]\n[8.543]]", fillcolor="#e58139"] ;
121 -> 122 ;
123 [label="rtrc_5 <= -5.5\nmse = 0.042\nsamples = 2\nvalue = [[8.956]\n[7.373]]", fillcolor="#e58139"] ;
122 -> 123 ;
124 [label="mse = 0.0\nsamples = 1\nvalue = [[9.137]\n[7.275]]", fillcolor="#e58139"] ;
123 -> 124 ;
125 [label="mse = -0.0\nsamples = 1\nvalue = [[8.593]\n[7.568]]", fillcolor="#e58139"] ;
123 -> 125 ;
126 [label="case_mil_percMax_6 <= 10.62\nmse = 0.196\nsamples = 5\nvalue = [[8.791]\n[9.129]]", fillcolor="#e58139"] ;
122 -> 126 ;
127 [label="dayow_3 <= 5.5\nmse = 0.019\nsamples = 2\nvalue = [[8.079]\n[8.972]]", fillcolor="#e58139"] ;
126 -> 127 ;
128 [label="mse = 0.0\nsamples = 1\nvalue = [[8.179]\n[8.806]]", fillcolor="#e58139"] ;
127 -> 128 ;
129 [label="mse = 0.0\nsamples = 1\nvalue = [[7.978]\n[9.137]]", fillcolor="#e58139"] ;
127 -> 129 ;
130 [label="resi_4 <= 10.0\nmse = 0.085\nsamples = 3\nvalue = [[9.147]\n[9.207]]", fillcolor="#e58139"] ;
126 -> 130 ;
131 [label="prks_6 <= 16.0\nmse = 0.029\nsamples = 2\nvalue = [[9.261]\n[9.036]]", fillcolor="#e58139"] ;
130 -> 131 ;
132 [label="mse = 0.0\nsamples = 1\nvalue = [[9.129]\n[8.93]]", fillcolor="#e58139"] ;
131 -> 132 ;
133 [label="mse = -0.0\nsamples = 1\nvalue = [[9.526]\n[9.249]]", fillcolor="#e58139"] ;
131 -> 133 ;
134 [label="mse = 0.0\nsamples = 1\nvalue = [[8.806]\n[9.72]]", fillcolor="#e58139"] ;
130 -> 134 ;
135 [label="grph_7 <= -0.5\nmse = 1.131\nsamples = 2\nvalue = [[11.187]\n[11.242]]", fillcolor="#e5813a"] ;
121 -> 135 ;
136 [label="mse = 0.0\nsamples = 1\nvalue = [[9.061]\n[11.332]]", fillcolor="#e58139"] ;
135 -> 136 ;
137 [label="mse = -0.0\nsamples = 1\nvalue = [[12.249]\n[11.197]]", fillcolor="#e58139"] ;
135 -> 137 ;
138 [label="dayow_7 <= 3.5\nmse = 3.17\nsamples = 32\nvalue = [[9.728]\n[9.737]]", fillcolor="#e5823a"] ;
50 -> 138 ;
139 [label="case_mil_percMax_3 <= 18.769\nmse = 2.105\nsamples = 17\nvalue = [[10.421]\n[10.7]]", fillcolor="#e5823a"] ;
138 -> 139 ;
140 [label="work_1 <= -37.5\nmse = 0.966\nsamples = 16\nvalue = [[10.235]\n[10.486]]", fillcolor="#e58139"] ;
139 -> 140 ;
141 [label="prks_1 <= -6.5\nmse = 0.418\nsamples = 12\nvalue = [[10.488]\n[10.942]]", fillcolor="#e58139"] ;
140 -> 141 ;
142 [label="case_mil_percMax_5 <= 9.484\nmse = 0.262\nsamples = 9\nvalue = [[10.326]\n[10.815]]", fillcolor="#e58139"] ;
141 -> 142 ;
143 [label="prks_6 <= -14.5\nmse = 0.017\nsamples = 3\nvalue = [[10.823]\n[10.745]]", fillcolor="#e58139"] ;
142 -> 143 ;
144 [label="mse = 0.0\nsamples = 1\nvalue = [[11.187]\n[10.759]]", fillcolor="#e58139"] ;
143 -> 144 ;
145 [label="grph_7 <= -14.5\nmse = 0.0\nsamples = 2\nvalue = [[10.732]\n[10.742]]", fillcolor="#e58139"] ;
143 -> 145 ;
146 [label="mse = 0.0\nsamples = 1\nvalue = [[10.745]\n[10.724]]", fillcolor="#e58139"] ;
145 -> 146 ;
147 [label="mse = -0.0\nsamples = 1\nvalue = [[10.724]\n[10.752]]", fillcolor="#e58139"] ;
145 -> 147 ;
148 [label="work_5 <= -48.5\nmse = 0.255\nsamples = 6\nvalue = [[9.83]\n[10.885]]", fillcolor="#e58139"] ;
142 -> 148 ;
149 [label="tran_6 <= -50.0\nmse = 0.276\nsamples = 3\nvalue = [[9.886]\n[10.077]]", fillcolor="#e58139"] ;
148 -> 149 ;
150 [label="mse = 0.0\nsamples = 1\nvalue = [[8.966]\n[9.591]]", fillcolor="#e58139"] ;
149 -> 150 ;
151 [label="resi_2 <= 14.0\nmse = 0.008\nsamples = 2\nvalue = [[10.346]\n[10.32]]", fillcolor="#e58139"] ;
149 -> 151 ;
152 [label="mse = 0.0\nsamples = 1\nvalue = [[10.244]\n[10.396]]", fillcolor="#e58139"] ;
151 -> 152 ;
153 [label="mse = -0.0\nsamples = 1\nvalue = [[10.447]\n[10.244]]", fillcolor="#e58139"] ;
151 -> 153 ;
154 [label="work_6 <= -52.5\nmse = 0.045\nsamples = 3\nvalue = [[9.806]\n[11.232]]", fillcolor="#e58139"] ;
148 -> 154 ;
155 [label="mse = -0.0\nsamples = 1\nvalue = [[9.985]\n[11.005]]", fillcolor="#e58139"] ;
154 -> 155 ;
156 [label="rtrc_2 <= -36.5\nmse = 0.024\nsamples = 2\nvalue = [[9.671]\n[11.402]]", fillcolor="#e58139"] ;
154 -> 156 ;
157 [label="mse = 0.0\nsamples = 1\nvalue = [[9.622]\n[11.187]]", fillcolor="#e58139"] ;
156 -> 157 ;
158 [label="mse = -0.0\nsamples = 1\nvalue = [[9.72]\n[11.618]]", fillcolor="#e58139"] ;
156 -> 158 ;
159 [label="prks_3 <= -15.0\nmse = 0.382\nsamples = 3\nvalue = [[11.565]\n[11.784]]", fillcolor="#e58139"] ;
141 -> 159 ;
160 [label="mse = 0.0\nsamples = 1\nvalue = [[10.396]\n[11.962]]", fillcolor="#e58139"] ;
159 -> 160 ;
161 [label="prks_7 <= 24.0\nmse = 0.048\nsamples = 2\nvalue = [[12.15]\n[11.696]]", fillcolor="#e58139"] ;
159 -> 161 ;
162 [label="mse = 0.0\nsamples = 1\nvalue = [[11.962]\n[11.45]]", fillcolor="#e58139"] ;
161 -> 162 ;
163 [label="mse = 0.0\nsamples = 1\nvalue = [[12.338]\n[11.941]]", fillcolor="#e58139"] ;
161 -> 163 ;
164 [label="case_mil_percMax_5 <= 9.613\nmse = 0.547\nsamples = 4\nvalue = [[9.263]\n[8.738]]", fillcolor="#e58139"] ;
140 -> 164 ;
165 [label="vac_4 <= 23.49\nmse = 0.044\nsamples = 2\nvalue = [[9.957]\n[8.797]]", fillcolor="#e58139"] ;
164 -> 165 ;
166 [label="mse = 0.0\nsamples = 1\nvalue = [[9.925]\n[8.629]]", fillcolor="#e58139"] ;
165 -> 166 ;
167 [label="mse = -0.0\nsamples = 1\nvalue = [[10.054]\n[9.303]]", fillcolor="#e58139"] ;
165 -> 167 ;
168 [label="rtrc_6 <= -25.0\nmse = 0.097\nsamples = 2\nvalue = [[7.876]\n[8.62]]", fillcolor="#e58139"] ;
164 -> 168 ;
169 [label="mse = 0.0\nsamples = 1\nvalue = [[7.893]\n[8.179]]", fillcolor="#e58139"] ;
168 -> 169 ;
170 [label="mse = -0.0\nsamples = 1\nvalue = [[7.859]\n[9.061]]", fillcolor="#e58139"] ;
168 -> 170 ;
171 [label="mse = 0.0\nsamples = 1\nvalue = [[15.831]\n[16.921]]", fillcolor="#e58139"] ;
139 -> 171 ;
172 [label="work_7 <= -31.5\nmse = 2.647\nsamples = 15\nvalue = [[8.927]\n[8.625]]", fillcolor="#e5823a"] ;
138 -> 172 ;
173 [label="grph_5 <= -15.0\nmse = 1.178\nsamples = 11\nvalue = [[9.458]\n[9.08]]", fillcolor="#e5813a"] ;
172 -> 173 ;
174 [label="tran_5 <= -48.5\nmse = 0.615\nsamples = 5\nvalue = [[10.512]\n[10.066]]", fillcolor="#e58139"] ;
173 -> 174 ;
175 [label="prks_7 <= -30.5\nmse = 0.342\nsamples = 4\nvalue = [[10.143]\n[10.388]]", fillcolor="#e58139"] ;
174 -> 175 ;
176 [label="mse = 0.0\nsamples = 1\nvalue = [[8.674]\n[9.925]]", fillcolor="#e58139"] ;
175 -> 176 ;
177 [label="rtrc_2 <= -41.0\nmse = 0.125\nsamples = 3\nvalue = [[10.437]\n[10.48]]", fillcolor="#e58139"] ;
175 -> 177 ;
178 [label="mse = 0.0\nsamples = 1\nvalue = [[9.95]\n[10.447]]", fillcolor="#e58139"] ;
177 -> 178 ;
179 [label="grph_6 <= -20.5\nmse = 0.076\nsamples = 2\nvalue = [[10.761]\n[10.502]]", fillcolor="#e58139"] ;
177 -> 179 ;
180 [label="mse = 0.0\nsamples = 1\nvalue = [[10.779]\n[9.95]]", fillcolor="#e58139"] ;
179 -> 180 ;
181 [label="mse = -0.0\nsamples = 1\nvalue = [[10.752]\n[10.779]]", fillcolor="#e58139"] ;
179 -> 181 ;
182 [label="mse = -0.0\nsamples = 1\nvalue = [[11.618]\n[9.102]]", fillcolor="#e58139"] ;
174 -> 182 ;
183 [label="prks_1 <= 43.5\nmse = 0.489\nsamples = 6\nvalue = [[8.81]\n[8.472]]", fillcolor="#e58139"] ;
173 -> 183 ;
184 [label="case_mil_percMax_7 <= 9.44\nmse = 0.168\nsamples = 5\nvalue = [[8.67]\n[8.283]]", fillcolor="#e58139"] ;
183 -> 184 ;
185 [label="resi_6 <= 18.5\nmse = 0.061\nsamples = 3\nvalue = [[8.423]\n[7.963]]", fillcolor="#e58139"] ;
184 -> 185 ;
186 [label="tran_3 <= -44.0\nmse = 0.002\nsamples = 2\nvalue = [[8.129]\n[8.016]]", fillcolor="#e58139"] ;
185 -> 186 ;
187 [label="mse = 0.0\nsamples = 1\nvalue = [[8.095]\n[8.01]]", fillcolor="#e58139"] ;
186 -> 187 ;
188 [label="mse = 0.0\nsamples = 1\nvalue = [[8.232]\n[8.033]]", fillcolor="#e58139"] ;
186 -> 188 ;
189 [label="mse = -0.0\nsamples = 1\nvalue = [[8.816]\n[7.893]]", fillcolor="#e58139"] ;
185 -> 189 ;
190 [label="rtrc_6 <= -38.0\nmse = 0.044\nsamples = 2\nvalue = [[9.015]\n[8.731]]", fillcolor="#e58139"] ;
184 -> 190 ;
191 [label="mse = 0.0\nsamples = 1\nvalue = [[9.071]\n[8.966]]", fillcolor="#e58139"] ;
190 -> 191 ;
192 [label="mse = 0.0\nsamples = 1\nvalue = [[8.93]\n[8.379]]", fillcolor="#e58139"] ;
190 -> 192 ;
193 [label="mse = -0.0\nsamples = 1\nvalue = [[10.498]\n[10.743]]", fillcolor="#e58139"] ;
183 -> 193 ;
194 [label="prks_3 <= 40.5\nmse = 3.483\nsamples = 4\nvalue = [[6.697]\n[6.717]]", fillcolor="#e5823b"] ;
172 -> 194 ;
195 [label="tran_5 <= -34.0\nmse = 0.779\nsamples = 3\nvalue = [[7.414]\n[4.845]]", fillcolor="#e58139"] ;
194 -> 195 ;
196 [label="mse = 0.0\nsamples = 1\nvalue = [[8.379]\n[6.259]]", fillcolor="#e58139"] ;
195 -> 196 ;
197 [label="case_mil_percMax_7 <= 9.453\nmse = 0.069\nsamples = 2\nvalue = [[6.932]\n[4.138]]", fillcolor="#e58139"] ;
195 -> 197 ;
198 [label="mse = 0.0\nsamples = 1\nvalue = [[7.275]\n[3.993]]", fillcolor="#e58139"] ;
197 -> 198 ;
199 [label="mse = -0.0\nsamples = 1\nvalue = [[6.589]\n[4.282]]", fillcolor="#e58139"] ;
197 -> 199 ;
200 [label="mse = 0.0\nsamples = 1\nvalue = [[5.62]\n[9.526]]", fillcolor="#e58139"] ;
194 -> 200 ;
201 [label="case_mil_percMax_6 <= 19.881\nmse = 27.572\nsamples = 137\nvalue = [[18.985]\n[19.022]]", fillcolor="#e78946"] ;
1 -> 201 ;
202 [label="case_mil_percMax_1 <= 19.68\nmse = 12.39\nsamples = 82\nvalue = [[16.684]\n[16.186]]", fillcolor="#e6853f"] ;
201 -> 202 ;
203 [label="case_mil_percMax_3 <= 22.832\nmse = 8.143\nsamples = 59\nvalue = [[15.124]\n[15.747]]", fillcolor="#e6833d"] ;
202 -> 203 ;
204 [label="case_mil_percMax_5 <= 16.12\nmse = 5.889\nsamples = 57\nvalue = [[14.638]\n[15.454]]", fillcolor="#e5833c"] ;
203 -> 204 ;
205 [label="work_6 <= -17.5\nmse = 4.11\nsamples = 35\nvalue = [[13.994]\n[14.048]]", fillcolor="#e5823b"] ;
204 -> 205 ;
206 [label="tran_5 <= -32.5\nmse = 3.062\nsamples = 24\nvalue = [[13.096]\n[14.332]]", fillcolor="#e5823a"] ;
205 -> 206 ;
207 [label="resi_1 <= 15.0\nmse = 1.93\nsamples = 6\nvalue = [[11.572]\n[11.795]]", fillcolor="#e5823a"] ;
206 -> 207 ;
208 [label="work_2 <= -32.5\nmse = 0.9\nsamples = 4\nvalue = [[11.908]\n[12.602]]", fillcolor="#e58139"] ;
207 -> 208 ;
209 [label="case_mil_percMax_4 <= 12.048\nmse = 0.564\nsamples = 2\nvalue = [[12.193]\n[11.659]]", fillcolor="#e58139"] ;
208 -> 209 ;
210 [label="mse = 0.0\nsamples = 1\nvalue = [[13.679]\n[11.44]]", fillcolor="#e58139"] ;
209 -> 210 ;
211 [label="mse = -0.0\nsamples = 1\nvalue = [[11.45]\n[11.769]]", fillcolor="#e58139"] ;
209 -> 211 ;
212 [label="rtrc_4 <= -15.0\nmse = 0.267\nsamples = 2\nvalue = [[11.623]\n[13.545]]", fillcolor="#e58139"] ;
208 -> 212 ;
213 [label="mse = -0.0\nsamples = 1\nvalue = [[11.081]\n[14.424]]", fillcolor="#e58139"] ;
212 -> 213 ;
214 [label="mse = -0.0\nsamples = 1\nvalue = [[11.894]\n[13.105]]", fillcolor="#e58139"] ;
212 -> 214 ;
215 [label="prks_4 <= -6.0\nmse = 0.438\nsamples = 2\nvalue = [[10.565]\n[9.375]]", fillcolor="#e58139"] ;
207 -> 215 ;
216 [label="mse = -0.0\nsamples = 1\nvalue = [[11.45]\n[9.679]]", fillcolor="#e58139"] ;
215 -> 216 ;
217 [label="mse = -0.0\nsamples = 1\nvalue = [[9.679]\n[9.071]]", fillcolor="#e58139"] ;
215 -> 217 ;
218 [label="tran_3 <= -20.5\nmse = 1.834\nsamples = 18\nvalue = [[13.516]\n[15.032]]", fillcolor="#e5823a"] ;
206 -> 218 ;
219 [label="prks_2 <= 37.0\nmse = 1.491\nsamples = 16\nvalue = [[13.251]\n[14.708]]", fillcolor="#e5813a"] ;
218 -> 219 ;
220 [label="case_mil_percMax_2 <= 12.456\nmse = 1.118\nsamples = 10\nvalue = [[13.537]\n[15.399]]", fillcolor="#e5813a"] ;
219 -> 220 ;
221 [label="prks_3 <= 67.0\nmse = 0.294\nsamples = 5\nvalue = [[12.885]\n[14.969]]", fillcolor="#e58139"] ;
220 -> 221 ;
222 [label="dayow_7 <= 2.5\nmse = 0.136\nsamples = 4\nvalue = [[13.082]\n[14.762]]", fillcolor="#e58139"] ;
221 -> 222 ;
223 [label="case_mil_percMax_5 <= 15.743\nmse = 0.055\nsamples = 3\nvalue = [[13.199]\n[14.961]]", fillcolor="#e58139"] ;
222 -> 223 ;
224 [label="mse = 0.0\nsamples = 1\nvalue = [[13.652]\n[14.728]]", fillcolor="#e58139"] ;
223 -> 224 ;
225 [label="prks_1 <= 23.5\nmse = 0.004\nsamples = 2\nvalue = [[13.017]\n[15.055]]", fillcolor="#e58139"] ;
223 -> 225 ;
226 [label="mse = -0.0\nsamples = 1\nvalue = [[13.127]\n[15.193]]", fillcolor="#e58139"] ;
225 -> 226 ;
227 [label="mse = -0.0\nsamples = 1\nvalue = [[12.99]\n[15.02]]", fillcolor="#e58139"] ;
225 -> 227 ;
228 [label="mse = -0.0\nsamples = 1\nvalue = [[12.672]\n[14.065]]", fillcolor="#e58139"] ;
222 -> 228 ;
229 [label="mse = -0.0\nsamples = 1\nvalue = [[12.0]\n[15.899]]", fillcolor="#e58139"] ;
221 -> 229 ;
230 [label="prks_6 <= 18.0\nmse = 1.04\nsamples = 5\nvalue = [[14.734]\n[16.188]]", fillcolor="#e58139"] ;
220 -> 230 ;
231 [label="mse = 0.0\nsamples = 1\nvalue = [[15.303]\n[13.903]]", fillcolor="#e58139"] ;
230 -> 231 ;
232 [label="grph_4 <= -7.0\nmse = 0.583\nsamples = 4\nvalue = [[14.62]\n[16.645]]", fillcolor="#e58139"] ;
230 -> 232 ;
233 [label="mse = 0.0\nsamples = 1\nvalue = [[12.796]\n[17.266]]", fillcolor="#e58139"] ;
232 -> 233 ;
234 [label="tran_3 <= -29.5\nmse = 0.149\nsamples = 3\nvalue = [[15.075]\n[16.49]]", fillcolor="#e58139"] ;
232 -> 234 ;
235 [label="work_2 <= -34.5\nmse = 0.024\nsamples = 2\nvalue = [[14.825]\n[16.646]]", fillcolor="#e58139"] ;
234 -> 235 ;
236 [label="mse = 0.0\nsamples = 1\nvalue = [[14.728]\n[16.768]]", fillcolor="#e58139"] ;
235 -> 236 ;
237 [label="mse = 0.0\nsamples = 1\nvalue = [[15.02]\n[16.402]]", fillcolor="#e58139"] ;
235 -> 237 ;
238 [label="mse = 0.0\nsamples = 1\nvalue = [[15.826]\n[16.021]]", fillcolor="#e58139"] ;
234 -> 238 ;
239 [label="rtrc_3 <= -13.5\nmse = 0.425\nsamples = 6\nvalue = [[12.644]\n[13.238]]", fillcolor="#e58139"] ;
219 -> 239 ;
240 [label="resi_3 <= 9.5\nmse = 0.285\nsamples = 4\nvalue = [[12.153]\n[13.083]]", fillcolor="#e58139"] ;
239 -> 240 ;
241 [label="grph_2 <= -5.5\nmse = 0.128\nsamples = 3\nvalue = [[12.342]\n[13.318]]", fillcolor="#e58139"] ;
240 -> 241 ;
242 [label="mse = -0.0\nsamples = 1\nvalue = [[13.144]\n[12.99]]", fillcolor="#e58139"] ;
241 -> 242 ;
243 [label="grph_3 <= -2.0\nmse = 0.005\nsamples = 2\nvalue = [[12.075]\n[13.428]]", fillcolor="#e58139"] ;
241 -> 243 ;
244 [label="mse = 0.0\nsamples = 1\nvalue = [[12.142]\n[13.431]]", fillcolor="#e58139"] ;
243 -> 244 ;
245 [label="mse = 0.0\nsamples = 1\nvalue = [[11.941]\n[13.421]]", fillcolor="#e58139"] ;
243 -> 245 ;
246 [label="mse = -0.0\nsamples = 1\nvalue = [[11.398]\n[12.142]]", fillcolor="#e58139"] ;
240 -> 246 ;
247 [label="tran_2 <= -26.0\nmse = 0.07\nsamples = 2\nvalue = [[13.461]\n[13.498]]", fillcolor="#e58139"] ;
239 -> 247 ;
248 [label="mse = 0.0\nsamples = 1\nvalue = [[13.557]\n[13.745]]", fillcolor="#e58139"] ;
247 -> 248 ;
249 [label="mse = 0.0\nsamples = 1\nvalue = [[13.268]\n[13.003]]", fillcolor="#e58139"] ;
247 -> 249 ;
250 [label="prks_5 <= 42.5\nmse = 0.019\nsamples = 2\nvalue = [[15.167]\n[17.056]]", fillcolor="#e58139"] ;
218 -> 250 ;
251 [label="mse = 0.0\nsamples = 1\nvalue = [[15.073]\n[16.993]]", fillcolor="#e58139"] ;
250 -> 251 ;
252 [label="mse = 0.0\nsamples = 1\nvalue = [[15.45]\n[17.247]]", fillcolor="#e58139"] ;
250 -> 252 ;
253 [label="resi_7 <= 7.0\nmse = 2.897\nsamples = 11\nvalue = [[16.211]\n[13.347]]", fillcolor="#e5823a"] ;
205 -> 253 ;
254 [label="resi_6 <= 2.5\nmse = 1.162\nsamples = 4\nvalue = [[14.809]\n[10.848]]", fillcolor="#e5813a"] ;
253 -> 254 ;
255 [label="prks_3 <= 21.5\nmse = 0.577\nsamples = 3\nvalue = [[15.063]\n[10.199]]", fillcolor="#e58139"] ;
254 -> 255 ;
256 [label="mse = 0.0\nsamples = 1\nvalue = [[16.021]\n[11.208]]", fillcolor="#e58139"] ;
255 -> 256 ;
257 [label="rtrc_1 <= -6.5\nmse = 0.139\nsamples = 2\nvalue = [[14.585]\n[9.695]]", fillcolor="#e58139"] ;
255 -> 257 ;
258 [label="mse = 0.0\nsamples = 1\nvalue = [[15.104]\n[9.786]]", fillcolor="#e58139"] ;
257 -> 258 ;
259 [label="mse = -0.0\nsamples = 1\nvalue = [[14.065]\n[9.603]]", fillcolor="#e58139"] ;
257 -> 259 ;
260 [label="mse = -0.0\nsamples = 1\nvalue = [[14.046]\n[12.796]]", fillcolor="#e58139"] ;
254 -> 260 ;
261 [label="case_mil_percMax_1 <= 16.378\nmse = 1.494\nsamples = 7\nvalue = [[16.72]\n[14.255]]", fillcolor="#e5813a"] ;
253 -> 261 ;
262 [label="case_mil_percMax_1 <= 14.04\nmse = 0.151\nsamples = 6\nvalue = [[16.218]\n[14.118]]", fillcolor="#e58139"] ;
261 -> 262 ;
263 [label="prks_6 <= 75.0\nmse = 0.039\nsamples = 2\nvalue = [[15.702]\n[13.705]]", fillcolor="#e58139"] ;
262 -> 263 ;
264 [label="mse = 0.0\nsamples = 1\nvalue = [[15.309]\n[13.755]]", fillcolor="#e58139"] ;
263 -> 264 ;
265 [label="mse = -0.0\nsamples = 1\nvalue = [[15.899]\n[13.679]]", fillcolor="#e58139"] ;
263 -> 265 ;
266 [label="prks_4 <= 27.5\nmse = 0.065\nsamples = 4\nvalue = [[16.439]\n[14.295]]", fillcolor="#e58139"] ;
262 -> 266 ;
267 [label="mse = 0.0\nsamples = 1\nvalue = [[16.074]\n[14.868]]", fillcolor="#e58139"] ;
266 -> 267 ;
268 [label="tran_3 <= -31.5\nmse = 0.031\nsamples = 3\nvalue = [[16.5]\n[14.2]]", fillcolor="#e58139"] ;
266 -> 268 ;
269 [label="rtrc_4 <= -15.5\nmse = 0.01\nsamples = 2\nvalue = [[16.366]\n[14.117]]", fillcolor="#e58139"] ;
268 -> 269 ;
270 [label="mse = -0.0\nsamples = 1\nvalue = [[16.402]\n[14.046]]", fillcolor="#e58139"] ;
269 -> 270 ;
271 [label="mse = -0.0\nsamples = 1\nvalue = [[16.256]\n[14.333]]", fillcolor="#e58139"] ;
269 -> 271 ;
272 [label="mse = 0.0\nsamples = 1\nvalue = [[16.768]\n[14.364]]", fillcolor="#e58139"] ;
268 -> 272 ;
273 [label="mse = -0.0\nsamples = 1\nvalue = [[21.745]\n[15.626]]", fillcolor="#e58139"] ;
261 -> 273 ;
274 [label="case_mil_percMax_6 <= 19.446\nmse = 4.964\nsamples = 22\nvalue = [[15.383]\n[17.08]]", fillcolor="#e5823b"] ;
204 -> 274 ;
275 [label="prks_7 <= 25.5\nmse = 3.449\nsamples = 19\nvalue = [[14.798]\n[16.597]]", fillcolor="#e5823b"] ;
274 -> 275 ;
276 [label="work_1 <= -22.5\nmse = 3.93\nsamples = 11\nvalue = [[14.668]\n[18.136]]", fillcolor="#e5823b"] ;
275 -> 276 ;
277 [label="prks_5 <= 35.5\nmse = 0.549\nsamples = 4\nvalue = [[17.962]\n[19.473]]", fillcolor="#e58139"] ;
276 -> 277 ;
278 [label="resi_6 <= 8.5\nmse = 0.094\nsamples = 3\nvalue = [[17.449]\n[19.709]]", fillcolor="#e58139"] ;
277 -> 278 ;
279 [label="prks_2 <= 20.0\nmse = 0.038\nsamples = 2\nvalue = [[17.188]\n[19.699]]", fillcolor="#e58139"] ;
278 -> 279 ;
280 [label="mse = -0.0\nsamples = 1\nvalue = [[16.993]\n[19.503]]", fillcolor="#e58139"] ;
279 -> 280 ;
281 [label="mse = 0.0\nsamples = 1\nvalue = [[17.384]\n[19.895]]", fillcolor="#e58139"] ;
279 -> 281 ;
282 [label="mse = -0.0\nsamples = 1\nvalue = [[17.97]\n[19.729]]", fillcolor="#e58139"] ;
278 -> 282 ;
283 [label="mse = 0.0\nsamples = 1\nvalue = [[19.503]\n[18.766]]", fillcolor="#e58139"] ;
277 -> 283 ;
284 [label="grph_4 <= -4.5\nmse = 2.247\nsamples = 7\nvalue = [[13.569]\n[17.69]]", fillcolor="#e5823a"] ;
276 -> 284 ;
285 [label="grph_7 <= -6.5\nmse = 1.096\nsamples = 4\nvalue = [[14.235]\n[18.157]]", fillcolor="#e5813a"] ;
284 -> 285 ;
286 [label="resi_3 <= 8.5\nmse = 0.718\nsamples = 2\nvalue = [[15.673]\n[18.746]]", fillcolor="#e58139"] ;
285 -> 286 ;
287 [label="mse = 0.0\nsamples = 1\nvalue = [[17.118]\n[17.862]]", fillcolor="#e58139"] ;
286 -> 287 ;
288 [label="mse = -0.0\nsamples = 1\nvalue = [[14.95]\n[19.188]]", fillcolor="#e58139"] ;
286 -> 288 ;
289 [label="rtrc_4 <= -14.0\nmse = 0.379\nsamples = 2\nvalue = [[13.516]\n[17.862]]", fillcolor="#e58139"] ;
285 -> 289 ;
290 [label="mse = 0.0\nsamples = 1\nvalue = [[13.903]\n[17.384]]", fillcolor="#e58139"] ;
289 -> 290 ;
291 [label="mse = 0.0\nsamples = 1\nvalue = [[12.741]\n[18.82]]", fillcolor="#e58139"] ;
289 -> 291 ;
292 [label="case_mil_percMax_2 <= 21.316\nmse = 1.739\nsamples = 3\nvalue = [[11.573]\n[16.291]]", fillcolor="#e5823a"] ;
284 -> 292 ;
293 [label="case_mil_percMax_1 <= 16.787\nmse = 0.285\nsamples = 2\nvalue = [[10.524]\n[16.961]]", fillcolor="#e58139"] ;
292 -> 293 ;
294 [label="mse = 0.0\nsamples = 1\nvalue = [[9.786]\n[16.805]]", fillcolor="#e58139"] ;
293 -> 294 ;
295 [label="mse = 0.0\nsamples = 1\nvalue = [[11.263]\n[17.118]]", fillcolor="#e58139"] ;
293 -> 295 ;
296 [label="mse = -0.0\nsamples = 1\nvalue = [[13.671]\n[14.95]]", fillcolor="#e58139"] ;
292 -> 296 ;
297 [label="grph_6 <= 1.5\nmse = 1.599\nsamples = 8\nvalue = [[14.893]\n[15.477]]", fillcolor="#e5813a"] ;
275 -> 297 ;
298 [label="prks_6 <= 41.0\nmse = 0.463\nsamples = 7\nvalue = [[14.641]\n[15.261]]", fillcolor="#e58139"] ;
297 -> 298 ;
299 [label="case_mil_percMax_7 <= 17.637\nmse = 0.398\nsamples = 3\nvalue = [[14.056]\n[15.456]]", fillcolor="#e58139"] ;
298 -> 299 ;
300 [label="resi_2 <= 5.0\nmse = 0.104\nsamples = 2\nvalue = [[13.368]\n[15.147]]", fillcolor="#e58139"] ;
299 -> 300 ;
301 [label="mse = 0.0\nsamples = 1\nvalue = [[13.551]\n[14.881]]", fillcolor="#e58139"] ;
300 -> 301 ;
302 [label="mse = -0.0\nsamples = 1\nvalue = [[13.003]\n[15.677]]", fillcolor="#e58139"] ;
300 -> 302 ;
303 [label="mse = 0.0\nsamples = 1\nvalue = [[14.881]\n[15.826]]", fillcolor="#e58139"] ;
299 -> 303 ;
304 [label="rtrc_4 <= -17.5\nmse = 0.098\nsamples = 4\nvalue = [[15.284]\n[15.048]]", fillcolor="#e58139"] ;
298 -> 304 ;
305 [label="mse = -0.0\nsamples = 1\nvalue = [[15.749]\n[14.658]]", fillcolor="#e58139"] ;
304 -> 305 ;
306 [label="rtrc_6 <= -13.5\nmse = 0.027\nsamples = 3\nvalue = [[15.084]\n[15.215]]", fillcolor="#e58139"] ;
304 -> 306 ;
307 [label="work_1 <= -25.5\nmse = 0.002\nsamples = 2\nvalue = [[15.1]\n[15.126]]", fillcolor="#e58139"] ;
306 -> 307 ;
308 [label="mse = -0.0\nsamples = 1\nvalue = [[15.034]\n[15.108]]", fillcolor="#e58139"] ;
307 -> 308 ;
309 [label="mse = 0.0\nsamples = 1\nvalue = [[15.166]\n[15.144]]", fillcolor="#e58139"] ;
307 -> 309 ;
310 [label="mse = -0.0\nsamples = 1\nvalue = [[14.988]\n[15.749]]", fillcolor="#e58139"] ;
306 -> 310 ;
311 [label="mse = 0.0\nsamples = 1\nvalue = [[20.189]\n[20.009]]", fillcolor="#e58139"] ;
297 -> 311 ;
312 [label="rtrc_7 <= -12.0\nmse = 3.152\nsamples = 3\nvalue = [[18.558]\n[19.702]]", fillcolor="#e5823a"] ;
274 -> 312 ;
313 [label="dayow_7 <= 2.5\nmse = 0.994\nsamples = 2\nvalue = [[18.487]\n[21.669]]", fillcolor="#e58139"] ;
312 -> 313 ;
314 [label="mse = 0.0\nsamples = 1\nvalue = [[19.895]\n[21.593]]", fillcolor="#e58139"] ;
313 -> 314 ;
315 [label="mse = -0.0\nsamples = 1\nvalue = [[17.079]\n[21.745]]", fillcolor="#e58139"] ;
313 -> 315 ;
316 [label="mse = -0.0\nsamples = 1\nvalue = [[18.651]\n[17.079]]", fillcolor="#e58139"] ;
312 -> 316 ;
317 [label="grph_3 <= -7.0\nmse = 0.021\nsamples = 2\nvalue = [[22.972]\n[20.473]]", fillcolor="#e58139"] ;
203 -> 317 ;
318 [label="mse = -0.0\nsamples = 1\nvalue = [[22.538]\n[20.62]]", fillcolor="#e58139"] ;
317 -> 318 ;
319 [label="mse = -0.0\nsamples = 1\nvalue = [[23.059]\n[20.444]]", fillcolor="#e58139"] ;
317 -> 319 ;
320 [label="vac_7 <= 13.765\nmse = 11.471\nsamples = 23\nvalue = [[20.602]\n[17.291]]", fillcolor="#e6843e"] ;
202 -> 320 ;
321 [label="case_mil_percMax_1 <= 24.615\nmse = 7.443\nsamples = 12\nvalue = [[21.119]\n[20.161]]", fillcolor="#e5833d"] ;
320 -> 321 ;
322 [label="tran_4 <= -31.5\nmse = 2.844\nsamples = 10\nvalue = [[20.002]\n[19.663]]", fillcolor="#e5823a"] ;
321 -> 322 ;
323 [label="prks_4 <= 7.0\nmse = 1.809\nsamples = 4\nvalue = [[18.169]\n[17.792]]", fillcolor="#e5823a"] ;
322 -> 323 ;
324 [label="resi_7 <= 6.0\nmse = 0.452\nsamples = 2\nvalue = [[17.75]\n[19.12]]", fillcolor="#e58139"] ;
323 -> 324 ;
325 [label="mse = 0.0\nsamples = 1\nvalue = [[17.113]\n[19.337]]", fillcolor="#e58139"] ;
324 -> 325 ;
326 [label="mse = 0.0\nsamples = 1\nvalue = [[19.024]\n[18.688]]", fillcolor="#e58139"] ;
324 -> 326 ;
327 [label="resi_3 <= 9.5\nmse = 0.204\nsamples = 2\nvalue = [[18.798]\n[15.798]]", fillcolor="#e58139"] ;
323 -> 327 ;
328 [label="mse = 0.0\nsamples = 1\nvalue = [[18.891]\n[16.43]]", fillcolor="#e58139"] ;
327 -> 328 ;
329 [label="mse = 0.0\nsamples = 1\nvalue = [[18.705]\n[15.166]]", fillcolor="#e58139"] ;
327 -> 329 ;
330 [label="dayow_4 <= 0.5\nmse = 1.25\nsamples = 6\nvalue = [[20.765]\n[20.443]]", fillcolor="#e5813a"] ;
322 -> 330 ;
331 [label="mse = 0.0\nsamples = 1\nvalue = [[22.651]\n[19.975]]", fillcolor="#e58139"] ;
330 -> 331 ;
332 [label="prks_6 <= 81.5\nmse = 0.828\nsamples = 5\nvalue = [[20.137]\n[20.599]]", fillcolor="#e58139"] ;
330 -> 332 ;
333 [label="case_mil_percMax_6 <= 17.87\nmse = 0.21\nsamples = 4\nvalue = [[19.946]\n[20.013]]", fillcolor="#e58139"] ;
332 -> 333 ;
334 [label="work_7 <= -23.5\nmse = 0.029\nsamples = 2\nvalue = [[19.842]\n[19.487]]", fillcolor="#e58139"] ;
333 -> 334 ;
335 [label="mse = 0.0\nsamples = 1\nvalue = [[19.975]\n[19.445]]", fillcolor="#e58139"] ;
334 -> 335 ;
336 [label="mse = 0.0\nsamples = 1\nvalue = [[19.445]\n[19.613]]", fillcolor="#e58139"] ;
334 -> 336 ;
337 [label="prks_3 <= 57.5\nmse = 0.003\nsamples = 2\nvalue = [[20.084]\n[20.715]]", fillcolor="#e58139"] ;
333 -> 337 ;
338 [label="mse = 0.0\nsamples = 1\nvalue = [[20.009]\n[20.804]]", fillcolor="#e58139"] ;
337 -> 338 ;
339 [label="mse = 0.0\nsamples = 1\nvalue = [[20.121]\n[20.671]]", fillcolor="#e58139"] ;
337 -> 339 ;
340 [label="mse = -0.0\nsamples = 1\nvalue = [[20.804]\n[22.651]]", fillcolor="#e58139"] ;
332 -> 340 ;
341 [label="dayow_5 <= 3.0\nmse = 5.213\nsamples = 2\nvalue = [[27.454]\n[22.984]]", fillcolor="#e5833b"] ;
321 -> 341 ;
342 [label="mse = 0.0\nsamples = 1\nvalue = [[27.547]\n[20.703]]", fillcolor="#e58139"] ;
341 -> 342 ;
343 [label="mse = 0.0\nsamples = 1\nvalue = [[27.269]\n[27.547]]", fillcolor="#e58139"] ;
341 -> 343 ;
344 [label="dayow_6 <= 5.5\nmse = 7.4\nsamples = 11\nvalue = [[20.11]\n[14.558]]", fillcolor="#e5833c"] ;
320 -> 344 ;
345 [label="vac_7 <= 23.715\nmse = 10.734\nsamples = 3\nvalue = [[20.27]\n[19.818]]", fillcolor="#e6843e"] ;
344 -> 345 ;
346 [label="rtrc_1 <= -12.0\nmse = 4.282\nsamples = 2\nvalue = [[22.232]\n[18.738]]", fillcolor="#e5823b"] ;
345 -> 346 ;
347 [label="mse = 0.0\nsamples = 1\nvalue = [[20.472]\n[17.649]]", fillcolor="#e58139"] ;
346 -> 347 ;
348 [label="mse = 0.0\nsamples = 1\nvalue = [[25.75]\n[20.917]]", fillcolor="#e58139"] ;
346 -> 348 ;
349 [label="mse = -0.0\nsamples = 1\nvalue = [[14.385]\n[23.059]]", fillcolor="#e58139"] ;
345 -> 349 ;
350 [label="case_mil_percMax_6 <= 12.216\nmse = 2.589\nsamples = 8\nvalue = [[20.072]\n[13.32]]", fillcolor="#e5823a"] ;
344 -> 350 ;
351 [label="case_mil_percMax_2 <= 24.534\nmse = 0.355\nsamples = 2\nvalue = [[21.557]\n[14.931]]", fillcolor="#e58139"] ;
350 -> 351 ;
352 [label="mse = 0.0\nsamples = 1\nvalue = [[20.917]\n[14.385]]", fillcolor="#e58139"] ;
351 -> 352 ;
353 [label="mse = 0.0\nsamples = 1\nvalue = [[22.198]\n[15.478]]", fillcolor="#e58139"] ;
351 -> 353 ;
354 [label="resi_1 <= 9.5\nmse = 1.784\nsamples = 6\nvalue = [[19.262]\n[12.441]]", fillcolor="#e5823a"] ;
350 -> 354 ;
355 [label="case_mil_percMax_7 <= 18.517\nmse = 1.11\nsamples = 5\nvalue = [[18.239]\n[12.869]]", fillcolor="#e5813a"] ;
354 -> 355 ;
356 [label="case_mil_percMax_5 <= 20.746\nmse = 0.094\nsamples = 2\nvalue = [[18.137]\n[10.984]]", fillcolor="#e58139"] ;
355 -> 356 ;
357 [label="mse = -0.0\nsamples = 1\nvalue = [[18.47]\n[11.263]]", fillcolor="#e58139"] ;
356 -> 357 ;
358 [label="mse = 0.0\nsamples = 1\nvalue = [[17.803]\n[10.705]]", fillcolor="#e58139"] ;
356 -> 358 ;
359 [label="grph_5 <= -8.0\nmse = 0.519\nsamples = 3\nvalue = [[18.279]\n[13.623]]", fillcolor="#e58139"] ;
355 -> 359 ;
360 [label="mse = 0.0\nsamples = 1\nvalue = [[19.386]\n[13.671]]", fillcolor="#e58139"] ;
359 -> 360 ;
361 [label="vac_1 <= 28.96\nmse = 0.184\nsamples = 2\nvalue = [[17.542]\n[13.591]]", fillcolor="#e58139"] ;
359 -> 361 ;
362 [label="mse = 0.0\nsamples = 1\nvalue = [[17.649]\n[12.741]]", fillcolor="#e58139"] ;
361 -> 362 ;
363 [label="mse = -0.0\nsamples = 1\nvalue = [[17.488]\n[14.016]]", fillcolor="#e58139"] ;
361 -> 363 ;
364 [label="mse = -0.0\nsamples = 1\nvalue = [[21.054]\n[11.691]]", fillcolor="#e58139"] ;
354 -> 364 ;
365 [label="case_mil_percMax_1 <= 23.163\nmse = 22.571\nsamples = 55\nvalue = [[22.931]\n[23.882]]", fillcolor="#e68844"] ;
201 -> 365 ;
366 [label="case_mil_percMax_7 <= 17.47\nmse = 9.221\nsamples = 38\nvalue = [[20.704]\n[21.986]]", fillcolor="#e6843d"] ;
365 -> 366 ;
367 [label="prks_7 <= 35.5\nmse = 6.931\nsamples = 4\nvalue = [[13.922]\n[19.503]]", fillcolor="#e5833c"] ;
366 -> 367 ;
368 [label="rtrc_1 <= -7.5\nmse = 0.285\nsamples = 2\nvalue = [[14.504]\n[22.891]]", fillcolor="#e58139"] ;
367 -> 368 ;
369 [label="mse = 0.0\nsamples = 1\nvalue = [[14.016]\n[22.673]]", fillcolor="#e58139"] ;
368 -> 369 ;
370 [label="mse = 0.0\nsamples = 1\nvalue = [[15.478]\n[23.328]]", fillcolor="#e58139"] ;
368 -> 370 ;
371 [label="work_3 <= -33.0\nmse = 1.756\nsamples = 2\nvalue = [[13.34]\n[16.114]]", fillcolor="#e5823a"] ;
367 -> 371 ;
372 [label="mse = 0.0\nsamples = 1\nvalue = [[14.658]\n[16.256]]", fillcolor="#e58139"] ;
371 -> 372 ;
373 [label="mse = 0.0\nsamples = 1\nvalue = [[10.705]\n[15.831]]", fillcolor="#e58139"] ;
371 -> 373 ;
374 [label="case_mil_percMax_2 <= 18.859\nmse = 6.061\nsamples = 34\nvalue = [[21.502]\n[22.278]]", fillcolor="#e5833c"] ;
366 -> 374 ;
375 [label="tran_2 <= -23.5\nmse = 1.648\nsamples = 9\nvalue = [[19.596]\n[20.303]]", fillcolor="#e5813a"] ;
374 -> 375 ;
376 [label="rtrc_6 <= -14.5\nmse = 0.82\nsamples = 7\nvalue = [[18.959]\n[20.132]]", fillcolor="#e58139"] ;
375 -> 376 ;
377 [label="mse = 0.0\nsamples = 1\nvalue = [[19.001]\n[22.366]]", fillcolor="#e58139"] ;
376 -> 377 ;
378 [label="grph_6 <= -3.0\nmse = 0.324\nsamples = 6\nvalue = [[18.95]\n[19.636]]", fillcolor="#e58139"] ;
376 -> 378 ;
379 [label="rtrc_6 <= -13.0\nmse = 0.199\nsamples = 4\nvalue = [[19.518]\n[19.688]]", fillcolor="#e58139"] ;
378 -> 379 ;
380 [label="work_3 <= -24.0\nmse = 0.04\nsamples = 2\nvalue = [[19.911]\n[20.309]]", fillcolor="#e58139"] ;
379 -> 380 ;
381 [label="mse = 0.0\nsamples = 1\nvalue = [[20.094]\n[20.524]]", fillcolor="#e58139"] ;
380 -> 381 ;
382 [label="mse = 0.0\nsamples = 1\nvalue = [[19.729]\n[20.094]]", fillcolor="#e58139"] ;
380 -> 382 ;
383 [label="resi_5 <= 5.5\nmse = 0.004\nsamples = 2\nvalue = [[19.255]\n[19.274]]", fillcolor="#e58139"] ;
379 -> 383 ;
384 [label="mse = 0.0\nsamples = 1\nvalue = [[19.389]\n[19.277]]", fillcolor="#e58139"] ;
383 -> 384 ;
385 [label="mse = 0.0\nsamples = 1\nvalue = [[19.188]\n[19.273]]", fillcolor="#e58139"] ;
383 -> 385 ;
386 [label="prks_7 <= 31.0\nmse = 0.023\nsamples = 2\nvalue = [[18.24]\n[19.571]]", fillcolor="#e58139"] ;
378 -> 386 ;
387 [label="mse = 0.0\nsamples = 1\nvalue = [[18.352]\n[19.389]]", fillcolor="#e58139"] ;
386 -> 387 ;
388 [label="mse = -0.0\nsamples = 1\nvalue = [[18.127]\n[19.753]]", fillcolor="#e58139"] ;
386 -> 388 ;
389 [label="vac_4 <= 32.2\nmse = 0.97\nsamples = 2\nvalue = [[21.93]\n[20.929]]", fillcolor="#e58139"] ;
375 -> 389 ;
390 [label="mse = 0.0\nsamples = 1\nvalue = [[20.444]\n[22.222]]", fillcolor="#e58139"] ;
389 -> 390 ;
391 [label="mse = -0.0\nsamples = 1\nvalue = [[22.673]\n[20.282]]", fillcolor="#e58139"] ;
389 -> 391 ;
392 [label="resi_3 <= 9.5\nmse = 5.766\nsamples = 25\nvalue = [[22.224]\n[23.025]]", fillcolor="#e5833c"] ;
374 -> 392 ;
393 [label="case_mil_percMax_7 <= 22.593\nmse = 3.478\nsamples = 18\nvalue = [[23.071]\n[23.944]]", fillcolor="#e5823b"] ;
392 -> 393 ;
394 [label="prks_6 <= 9.5\nmse = 2.622\nsamples = 8\nvalue = [[24.247]\n[25.115]]", fillcolor="#e5823a"] ;
393 -> 394 ;
395 [label="work_6 <= -30.5\nmse = 1.78\nsamples = 4\nvalue = [[25.471]\n[25.295]]", fillcolor="#e5823a"] ;
394 -> 395 ;
396 [label="prks_6 <= -9.5\nmse = 0.504\nsamples = 3\nvalue = [[24.955]\n[26.517]]", fillcolor="#e58139"] ;
395 -> 396 ;
397 [label="mse = 0.0\nsamples = 1\nvalue = [[24.056]\n[24.874]]", fillcolor="#e58139"] ;
396 -> 397 ;
398 [label="dayow_5 <= 4.5\nmse = 0.082\nsamples = 2\nvalue = [[25.18]\n[26.928]]", fillcolor="#e58139"] ;
396 -> 398 ;
399 [label="mse = -0.0\nsamples = 1\nvalue = [[24.963]\n[26.586]]", fillcolor="#e58139"] ;
398 -> 399 ;
400 [label="mse = -0.0\nsamples = 1\nvalue = [[25.398]\n[27.269]]", fillcolor="#e58139"] ;
398 -> 400 ;
401 [label="mse = 0.0\nsamples = 1\nvalue = [[26.331]\n[23.259]]", fillcolor="#e58139"] ;
395 -> 401 ;
402 [label="work_5 <= -37.5\nmse = 0.784\nsamples = 4\nvalue = [[22.288]\n[24.826]]", fillcolor="#e58139"] ;
394 -> 402 ;
403 [label="mse = -0.0\nsamples = 1\nvalue = [[22.649]\n[22.662]]", fillcolor="#e58139"] ;
402 -> 403 ;
404 [label="case_mil_percMax_1 <= 20.662\nmse = 0.227\nsamples = 3\nvalue = [[22.198]\n[25.368]]", fillcolor="#e58139"] ;
402 -> 404 ;
405 [label="mse = 0.0\nsamples = 1\nvalue = [[21.068]\n[25.398]]", fillcolor="#e58139"] ;
404 -> 405 ;
406 [label="work_2 <= -24.0\nmse = 0.019\nsamples = 2\nvalue = [[22.575]\n[25.358]]", fillcolor="#e58139"] ;
404 -> 406 ;
407 [label="mse = 0.0\nsamples = 1\nvalue = [[22.662]\n[25.25]]", fillcolor="#e58139"] ;
406 -> 407 ;
408 [label="mse = -0.0\nsamples = 1\nvalue = [[22.402]\n[25.573]]", fillcolor="#e58139"] ;
406 -> 408 ;
409 [label="case_mil_percMax_2 <= 22.866\nmse = 1.809\nsamples = 10\nvalue = [[21.98]\n[22.858]]", fillcolor="#e5823a"] ;
393 -> 409 ;
410 [label="case_mil_percMax_1 <= 20.796\nmse = 0.931\nsamples = 9\nvalue = [[21.939]\n[22.279]]", fillcolor="#e58139"] ;
409 -> 410 ;
411 [label="tran_5 <= -26.5\nmse = 0.559\nsamples = 5\nvalue = [[21.167]\n[22.446]]", fillcolor="#e58139"] ;
410 -> 411 ;
412 [label="case_mil_percMax_5 <= 26.19\nmse = 0.259\nsamples = 4\nvalue = [[21.23]\n[22.775]]", fillcolor="#e58139"] ;
411 -> 412 ;
413 [label="grph_5 <= -5.5\nmse = 0.192\nsamples = 2\nvalue = [[21.91]\n[23.07]]", fillcolor="#e58139"] ;
412 -> 413 ;
414 [label="mse = -0.0\nsamples = 1\nvalue = [[22.366]\n[22.651]]", fillcolor="#e58139"] ;
413 -> 414 ;
415 [label="mse = -0.0\nsamples = 1\nvalue = [[21.454]\n[23.49]]", fillcolor="#e58139"] ;
413 -> 415 ;
416 [label="resi_3 <= 5.0\nmse = 0.087\nsamples = 2\nvalue = [[20.891]\n[22.627]]", fillcolor="#e58139"] ;
412 -> 416 ;
417 [label="mse = -0.0\nsamples = 1\nvalue = [[20.921]\n[22.389]]", fillcolor="#e58139"] ;
416 -> 417 ;
418 [label="mse = 0.0\nsamples = 1\nvalue = [[20.801]\n[23.344]]", fillcolor="#e58139"] ;
416 -> 418 ;
419 [label="mse = 0.0\nsamples = 1\nvalue = [[20.788]\n[20.472]]", fillcolor="#e58139"] ;
411 -> 419 ;
420 [label="rtrc_4 <= -17.5\nmse = 0.405\nsamples = 4\nvalue = [[23.02]\n[22.044]]", fillcolor="#e58139"] ;
410 -> 420 ;
421 [label="grph_3 <= -4.5\nmse = 0.036\nsamples = 2\nvalue = [[23.705]\n[22.617]]", fillcolor="#e58139"] ;
420 -> 421 ;
422 [label="mse = 0.0\nsamples = 1\nvalue = [[23.921]\n[22.454]]", fillcolor="#e58139"] ;
421 -> 422 ;
423 [label="mse = 0.0\nsamples = 1\nvalue = [[23.49]\n[22.78]]", fillcolor="#e58139"] ;
421 -> 423 ;
424 [label="case_mil_percMax_1 <= 21.643\nmse = 0.207\nsamples = 2\nvalue = [[22.563]\n[21.663]]", fillcolor="#e58139"] ;
420 -> 424 ;
425 [label="mse = -0.0\nsamples = 1\nvalue = [[22.389]\n[20.77]]", fillcolor="#e58139"] ;
424 -> 425 ;
426 [label="mse = -0.0\nsamples = 1\nvalue = [[22.651]\n[22.109]]", fillcolor="#e58139"] ;
424 -> 426 ;
427 [label="mse = -0.0\nsamples = 1\nvalue = [[22.222]\n[26.331]]", fillcolor="#e58139"] ;
409 -> 427 ;
428 [label="tran_6 <= -30.5\nmse = 4.128\nsamples = 7\nvalue = [[19.934]\n[20.543]]", fillcolor="#e5823b"] ;
392 -> 428 ;
429 [label="work_7 <= -35.5\nmse = 1.469\nsamples = 5\nvalue = [[18.48]\n[20.923]]", fillcolor="#e5813a"] ;
428 -> 429 ;
430 [label="tran_1 <= -28.0\nmse = 0.482\nsamples = 2\nvalue = [[18.793]\n[23.079]]", fillcolor="#e58139"] ;
429 -> 430 ;
431 [label="mse = 0.0\nsamples = 1\nvalue = [[18.688]\n[24.056]]", fillcolor="#e58139"] ;
430 -> 431 ;
432 [label="mse = -0.0\nsamples = 1\nvalue = [[18.899]\n[22.103]]", fillcolor="#e58139"] ;
430 -> 432 ;
433 [label="prks_2 <= -16.0\nmse = 0.534\nsamples = 3\nvalue = [[18.355]\n[20.06]]", fillcolor="#e58139"] ;
429 -> 433 ;
434 [label="mse = -0.0\nsamples = 1\nvalue = [[18.065]\n[20.801]]", fillcolor="#e58139"] ;
433 -> 434 ;
435 [label="case_mil_percMax_6 <= 22.363\nmse = 0.151\nsamples = 2\nvalue = [[18.79]\n[18.95]]", fillcolor="#e58139"] ;
433 -> 435 ;
436 [label="mse = 0.0\nsamples = 1\nvalue = [[18.244]\n[18.899]]", fillcolor="#e58139"] ;
435 -> 436 ;
437 [label="mse = 0.0\nsamples = 1\nvalue = [[19.337]\n[19.001]]", fillcolor="#e58139"] ;
435 -> 437 ;
438 [label="dayow_7 <= 2.0\nmse = 1.555\nsamples = 2\nvalue = [[23.326]\n[19.657]]", fillcolor="#e5813a"] ;
428 -> 438 ;
439 [label="mse = 0.0\nsamples = 1\nvalue = [[25.76]\n[20.199]]", fillcolor="#e58139"] ;
438 -> 439 ;
440 [label="mse = -0.0\nsamples = 1\nvalue = [[22.109]\n[19.386]]", fillcolor="#e58139"] ;
438 -> 440 ;
441 [label="vac_3 <= 9.965\nmse = 22.661\nsamples = 17\nvalue = [[27.633]\n[27.885]]", fillcolor="#e68844"] ;
365 -> 441 ;
442 [label="rtrc_3 <= -15.0\nmse = 8.515\nsamples = 8\nvalue = [[30.691]\n[32.441]]", fillcolor="#e6843d"] ;
441 -> 442 ;
443 [label="grph_4 <= -8.5\nmse = 4.561\nsamples = 7\nvalue = [[30.885]\n[31.616]]", fillcolor="#e5823b"] ;
442 -> 443 ;
444 [label="rtrc_6 <= -25.0\nmse = 1.271\nsamples = 3\nvalue = [[32.026]\n[29.667]]", fillcolor="#e5813a"] ;
443 -> 444 ;
445 [label="mse = 0.0\nsamples = 1\nvalue = [[29.869]\n[30.1]]", fillcolor="#e58139"] ;
444 -> 445 ;
446 [label="work_1 <= -32.5\nmse = 0.091\nsamples = 2\nvalue = [[33.105]\n[29.45]]", fillcolor="#e58139"] ;
444 -> 446 ;
447 [label="mse = 0.0\nsamples = 1\nvalue = [[33.172]\n[29.028]]", fillcolor="#e58139"] ;
446 -> 447 ;
448 [label="mse = 0.0\nsamples = 1\nvalue = [[33.037]\n[29.872]]", fillcolor="#e58139"] ;
446 -> 448 ;
449 [label="prks_6 <= 15.0\nmse = 2.749\nsamples = 4\nvalue = [[29.744]\n[33.566]]", fillcolor="#e5823a"] ;
443 -> 449 ;
450 [label="tran_5 <= -28.5\nmse = 0.699\nsamples = 3\nvalue = [[30.406]\n[34.22]]", fillcolor="#e58139"] ;
449 -> 450 ;
451 [label="dayow_4 <= 3.0\nmse = 0.381\nsamples = 2\nvalue = [[30.482]\n[35.009]]", fillcolor="#e58139"] ;
450 -> 451 ;
452 [label="mse = -0.0\nsamples = 1\nvalue = [[29.872]\n[34.913]]", fillcolor="#e58139"] ;
451 -> 452 ;
453 [label="mse = 0.0\nsamples = 1\nvalue = [[31.701]\n[35.2]]", fillcolor="#e58139"] ;
451 -> 453 ;
454 [label="mse = -0.0\nsamples = 1\nvalue = [[30.293]\n[33.037]]", fillcolor="#e58139"] ;
450 -> 454 ;
455 [label="mse = 0.0\nsamples = 1\nvalue = [[26.435]\n[30.293]]", fillcolor="#e58139"] ;
449 -> 455 ;
456 [label="mse = 0.0\nsamples = 1\nvalue = [[28.36]\n[42.334]]", fillcolor="#e58139"] ;
442 -> 456 ;
457 [label="vac_1 <= 11.56\nmse = 8.839\nsamples = 9\nvalue = [[24.793]\n[23.655]]", fillcolor="#e6843d"] ;
441 -> 457 ;
458 [label="vac_4 <= 9.965\nmse = 8.049\nsamples = 2\nvalue = [[26.088]\n[20.233]]", fillcolor="#e5833d"] ;
457 -> 458 ;
459 [label="mse = 0.0\nsamples = 1\nvalue = [[29.028]\n[21.678]]", fillcolor="#e58139"] ;
458 -> 459 ;
460 [label="mse = 0.0\nsamples = 1\nvalue = [[21.678]\n[18.065]]", fillcolor="#e58139"] ;
458 -> 460 ;
461 [label="case_mil_percMax_6 <= 22.741\nmse = 3.494\nsamples = 7\nvalue = [[24.074]\n[25.556]]", fillcolor="#e5823b"] ;
457 -> 461 ;
462 [label="resi_1 <= 8.5\nmse = 0.648\nsamples = 2\nvalue = [[20.96]\n[25.226]]", fillcolor="#e58139"] ;
461 -> 462 ;
463 [label="mse = 0.0\nsamples = 1\nvalue = [[20.199]\n[24.963]]", fillcolor="#e58139"] ;
462 -> 463 ;
464 [label="mse = 0.0\nsamples = 1\nvalue = [[22.482]\n[25.75]]", fillcolor="#e58139"] ;
462 -> 464 ;
465 [label="resi_2 <= 14.5\nmse = 1.241\nsamples = 5\nvalue = [[25.631]\n[25.721]]", fillcolor="#e5813a"] ;
461 -> 465 ;
466 [label="grph_3 <= -1.5\nmse = 0.766\nsamples = 4\nvalue = [[26.103]\n[25.587]]", fillcolor="#e58139"] ;
465 -> 466 ;
467 [label="rtrc_5 <= -21.5\nmse = 0.332\nsamples = 3\nvalue = [[25.982]\n[25.102]]", fillcolor="#e58139"] ;
466 -> 467 ;
468 [label="mse = 0.0\nsamples = 1\nvalue = [[26.387]\n[23.833]]", fillcolor="#e58139"] ;
467 -> 468 ;
469 [label="resi_7 <= 12.0\nmse = 0.048\nsamples = 2\nvalue = [[25.847]\n[25.525]]", fillcolor="#e58139"] ;
467 -> 469 ;
470 [label="mse = 0.0\nsamples = 1\nvalue = [[25.946]\n[25.099]]", fillcolor="#e58139"] ;
469 -> 470 ;
471 [label="mse = -0.0\nsamples = 1\nvalue = [[25.798]\n[25.738]]", fillcolor="#e58139"] ;
469 -> 471 ;
472 [label="mse = -0.0\nsamples = 1\nvalue = [[26.586]\n[27.529]]", fillcolor="#e58139"] ;
466 -> 472 ;
473 [label="mse = 0.0\nsamples = 1\nvalue = [[23.268]\n[26.387]]", fillcolor="#e58139"] ;
465 -> 473 ;
474 [label="case_mil_percMax_2 <= 69.358\nmse = 261.596\nsamples = 55\nvalue = [[61.204]\n[60.632]]", fillcolor="#f5cfb4"] ;
0 -> 474 [labeldistance=2.5, labelangle=-45, headlabel="False"] ;
475 [label="case_mil_percMax_1 <= 63.614\nmse = 124.994\nsamples = 37\nvalue = [[54.305]\n[52.72]]", fillcolor="#eda674"] ;
474 -> 475 ;
476 [label="case_mil_percMax_1 <= 43.361\nmse = 60.175\nsamples = 28\nvalue = [[49.749]\n[48.777]]", fillcolor="#e99355"] ;
475 -> 476 ;
477 [label="work_3 <= -12.5\nmse = 16.527\nsamples = 9\nvalue = [[43.108]\n[42.525]]", fillcolor="#e68641"] ;
476 -> 477 ;
478 [label="work_4 <= -31.5\nmse = 9.335\nsamples = 8\nvalue = [[41.779]\n[40.228]]", fillcolor="#e6843d"] ;
477 -> 478 ;
479 [label="case_mil_percMax_7 <= 52.967\nmse = 2.22\nsamples = 3\nvalue = [[44.209]\n[36.513]]", fillcolor="#e5823a"] ;
478 -> 479 ;
480 [label="dayow_3 <= 3.0\nmse = 0.772\nsamples = 2\nvalue = [[43.68]\n[38.353]]", fillcolor="#e58139"] ;
479 -> 480 ;
481 [label="mse = 0.0\nsamples = 1\nvalue = [[42.438]\n[38.331]]", fillcolor="#e58139"] ;
480 -> 481 ;
482 [label="mse = 0.0\nsamples = 1\nvalue = [[44.922]\n[38.375]]", fillcolor="#e58139"] ;
480 -> 482 ;
483 [label="mse = -0.0\nsamples = 1\nvalue = [[44.738]\n[34.672]]", fillcolor="#e58139"] ;
479 -> 483 ;
484 [label="rtrc_5 <= -16.0\nmse = 4.55\nsamples = 5\nvalue = [[40.391]\n[42.352]]", fillcolor="#e5823b"] ;
478 -> 484 ;
485 [label="dayow_3 <= 0.5\nmse = 1.026\nsamples = 3\nvalue = [[41.922]\n[42.665]]", fillcolor="#e58139"] ;
484 -> 485 ;
486 [label="mse = 0.0\nsamples = 1\nvalue = [[41.272]\n[44.738]]", fillcolor="#e58139"] ;
485 -> 486 ;
487 [label="case_mil_percMax_6 <= 43.027\nmse = 0.545\nsamples = 2\nvalue = [[42.084]\n[42.146]]", fillcolor="#e58139"] ;
485 -> 487 ;
488 [label="mse = -0.0\nsamples = 1\nvalue = [[42.612]\n[42.438]]", fillcolor="#e58139"] ;
487 -> 488 ;
489 [label="mse = -0.0\nsamples = 1\nvalue = [[40.501]\n[41.272]]", fillcolor="#e58139"] ;
487 -> 489 ;
490 [label="dayow_4 <= 3.5\nmse = 2.669\nsamples = 2\nvalue = [[36.562]\n[41.569]]", fillcolor="#e5823a"] ;
484 -> 490 ;
491 [label="mse = 0.0\nsamples = 1\nvalue = [[38.331]\n[40.083]]", fillcolor="#e58139"] ;
490 -> 491 ;
492 [label="mse = 0.0\nsamples = 1\nvalue = [[34.793]\n[43.056]]", fillcolor="#e58139"] ;
490 -> 492 ;
493 [label="mse = -0.0\nsamples = 1\nvalue = [[46.763]\n[48.841]]", fillcolor="#e58139"] ;
477 -> 493 ;
494 [label="tran_2 <= -36.5\nmse = 47.515\nsamples = 19\nvalue = [[53.58]\n[52.384]]", fillcolor="#e88f4f"] ;
476 -> 494 ;
495 [label="work_6 <= -31.5\nmse = 34.98\nsamples = 10\nvalue = [[53.226]\n[48.12]]", fillcolor="#e78b49"] ;
494 -> 495 ;
496 [label="dayow_1 <= 3.0\nmse = 20.05\nsamples = 5\nvalue = [[49.27]\n[52.823]]", fillcolor="#e68742"] ;
495 -> 496 ;
497 [label="tran_6 <= -41.5\nmse = 9.752\nsamples = 2\nvalue = [[54.945]\n[58.587]]", fillcolor="#e6843e"] ;
496 -> 497 ;
498 [label="mse = 0.0\nsamples = 1\nvalue = [[51.241]\n[56.181]]", fillcolor="#e58139"] ;
497 -> 498 ;
499 [label="mse = -0.0\nsamples = 1\nvalue = [[58.648]\n[60.993]]", fillcolor="#e58139"] ;
497 -> 499 ;
500 [label="resi_2 <= 9.5\nmse = 5.847\nsamples = 3\nvalue = [[46.999]\n[50.517]]", fillcolor="#e5833c"] ;
496 -> 500 ;
501 [label="mse = -0.0\nsamples = 1\nvalue = [[50.481]\n[49.133]]", fillcolor="#e58139"] ;
500 -> 501 ;
502 [label="rtrc_7 <= -22.5\nmse = 1.946\nsamples = 2\nvalue = [[44.678]\n[51.44]]", fillcolor="#e5823a"] ;
500 -> 502 ;
503 [label="mse = 0.0\nsamples = 1\nvalue = [[43.665]\n[50.481]]", fillcolor="#e58139"] ;
502 -> 503 ;
504 [label="mse = -0.0\nsamples = 1\nvalue = [[46.704]\n[53.358]]", fillcolor="#e58139"] ;
502 -> 504 ;
505 [label="work_5 <= -15.5\nmse = 20.479\nsamples = 5\nvalue = [[56.303]\n[44.462]]", fillcolor="#e68743"] ;
495 -> 505 ;
506 [label="vac_3 <= 6.07\nmse = 12.874\nsamples = 4\nvalue = [[55.836]\n[43.033]]", fillcolor="#e6853f"] ;
505 -> 506 ;
507 [label="work_1 <= -34.0\nmse = 6.264\nsamples = 3\nvalue = [[57.039]\n[43.848]]", fillcolor="#e5833c"] ;
506 -> 507 ;
508 [label="mse = -0.0\nsamples = 1\nvalue = [[61.04]\n[37.451]]", fillcolor="#e58139"] ;
507 -> 508 ;
509 [label="grph_5 <= -15.0\nmse = 1.772\nsamples = 2\nvalue = [[56.372]\n[44.915]]", fillcolor="#e5823a"] ;
507 -> 509 ;
510 [label="mse = 0.0\nsamples = 1\nvalue = [[55.452]\n[47.413]]", fillcolor="#e58139"] ;
509 -> 510 ;
511 [label="mse = 0.0\nsamples = 1\nvalue = [[56.832]\n[43.665]]", fillcolor="#e58139"] ;
509 -> 511 ;
512 [label="mse = 0.0\nsamples = 1\nvalue = [[47.413]\n[37.327]]", fillcolor="#e58139"] ;
506 -> 512 ;
513 [label="mse = 0.0\nsamples = 1\nvalue = [[60.04]\n[55.889]]", fillcolor="#e58139"] ;
505 -> 513 ;
514 [label="resi_5 <= 12.5\nmse = 29.477\nsamples = 9\nvalue = [[54.147]\n[59.208]]", fillcolor="#e78a47"] ;
494 -> 514 ;
515 [label="grph_2 <= -7.5\nmse = 11.102\nsamples = 7\nvalue = [[51.582]\n[57.327]]", fillcolor="#e6843e"] ;
514 -> 515 ;
516 [label="resi_5 <= 10.5\nmse = 2.9\nsamples = 4\nvalue = [[47.731]\n[56.386]]", fillcolor="#e5823a"] ;
515 -> 516 ;
517 [label="resi_1 <= 7.5\nmse = 1.559\nsamples = 2\nvalue = [[47.112]\n[54.478]]", fillcolor="#e5813a"] ;
516 -> 517 ;
518 [label="mse = -0.0\nsamples = 1\nvalue = [[45.382]\n[54.125]]", fillcolor="#e58139"] ;
517 -> 518 ;
519 [label="mse = 0.0\nsamples = 1\nvalue = [[48.841]\n[54.832]]", fillcolor="#e58139"] ;
517 -> 519 ;
520 [label="tran_7 <= -37.0\nmse = 0.218\nsamples = 2\nvalue = [[48.35]\n[58.294]]", fillcolor="#e58139"] ;
516 -> 520 ;
521 [label="mse = 0.0\nsamples = 1\nvalue = [[47.792]\n[58.648]]", fillcolor="#e58139"] ;
520 -> 521 ;
522 [label="mse = 0.0\nsamples = 1\nvalue = [[48.907]\n[57.94]]", fillcolor="#e58139"] ;
520 -> 522 ;
523 [label="prks_1 <= -9.0\nmse = 3.589\nsamples = 3\nvalue = [[55.432]\n[58.268]]", fillcolor="#e5823b"] ;
515 -> 523 ;
524 [label="dayow_2 <= 3.0\nmse = 1.363\nsamples = 2\nvalue = [[55.868]\n[59.502]]", fillcolor="#e5813a"] ;
523 -> 524 ;
525 [label="mse = 0.0\nsamples = 1\nvalue = [[54.832]\n[60.04]]", fillcolor="#e58139"] ;
524 -> 525 ;
526 [label="mse = 0.0\nsamples = 1\nvalue = [[57.94]\n[58.425]]", fillcolor="#e58139"] ;
524 -> 526 ;
527 [label="mse = -0.0\nsamples = 1\nvalue = [[54.125]\n[54.569]]", fillcolor="#e58139"] ;
523 -> 527 ;
528 [label="tran_4 <= -45.0\nmse = 1.805\nsamples = 2\nvalue = [[64.408]\n[66.731]]", fillcolor="#e5823a"] ;
514 -> 528 ;
529 [label="mse = -0.0\nsamples = 1\nvalue = [[62.683]\n[67.527]]", fillcolor="#e58139"] ;
528 -> 529 ;
530 [label="mse = 0.0\nsamples = 1\nvalue = [[66.132]\n[65.934]]", fillcolor="#e58139"] ;
528 -> 530 ;
531 [label="dayow_1 <= 2.5\nmse = 105.969\nsamples = 9\nvalue = [[67.649]\n[64.267]]", fillcolor="#eca16b"] ;
475 -> 531 ;
532 [label="rtrc_3 <= -17.5\nmse = 69.25\nsamples = 6\nvalue = [[73.099]\n[69.587]]", fillcolor="#e9965a"] ;
531 -> 532 ;
533 [label="prks_6 <= -24.0\nmse = 13.161\nsamples = 4\nvalue = [[70.774]\n[76.536]]", fillcolor="#e6853f"] ;
532 -> 533 ;
534 [label="mse = -0.0\nsamples = 1\nvalue = [[65.934]\n[76.424]]", fillcolor="#e58139"] ;
533 -> 534 ;
535 [label="prks_7 <= -10.5\nmse = 2.884\nsamples = 3\nvalue = [[75.614]\n[76.648]]", fillcolor="#e5823a"] ;
533 -> 535 ;
536 [label="work_5 <= -25.0\nmse = 1.398\nsamples = 2\nvalue = [[74.531]\n[75.765]]", fillcolor="#e5813a"] ;
535 -> 536 ;
537 [label="mse = 0.0\nsamples = 1\nvalue = [[74.702]\n[74.102]]", fillcolor="#e58139"] ;
536 -> 537 ;
538 [label="mse = 0.0\nsamples = 1\nvalue = [[74.359]\n[77.429]]", fillcolor="#e58139"] ;
536 -> 538 ;
539 [label="mse = 0.0\nsamples = 1\nvalue = [[77.781]\n[78.413]]", fillcolor="#e58139"] ;
535 -> 539 ;
540 [label="resi_4 <= 6.5\nmse = 20.368\nsamples = 2\nvalue = [[77.75]\n[55.691]]", fillcolor="#e68743"] ;
532 -> 540 ;
541 [label="mse = 0.0\nsamples = 1\nvalue = [[76.424]\n[64.619]]", fillcolor="#e58139"] ;
540 -> 541 ;
542 [label="mse = -0.0\nsamples = 1\nvalue = [[78.413]\n[51.226]]", fillcolor="#e58139"] ;
540 -> 542 ;
543 [label="rtrc_6 <= -13.0\nmse = 25.872\nsamples = 3\nvalue = [[57.837]\n[54.691]]", fillcolor="#e78945"] ;
531 -> 543 ;
544 [label="work_4 <= -31.5\nmse = 17.386\nsamples = 2\nvalue = [[61.816]\n[52.511]]", fillcolor="#e68641"] ;
543 -> 544 ;
545 [label="mse = 0.0\nsamples = 1\nvalue = [[59.72]\n[48.907]]", fillcolor="#e58139"] ;
544 -> 545 ;
546 [label="mse = -0.0\nsamples = 1\nvalue = [[66.009]\n[59.72]]", fillcolor="#e58139"] ;
544 -> 546 ;
547 [label="mse = 0.0\nsamples = 1\nvalue = [[51.868]\n[57.961]]", fillcolor="#e58139"] ;
543 -> 547 ;
548 [label="tran_7 <= -36.5\nmse = 218.028\nsamples = 18\nvalue = [[74.287]\n[75.637]]", fillcolor="#f2c2a0"] ;
474 -> 548 ;
549 [label="case_mil_percMax_2 <= 76.883\nmse = 92.076\nsamples = 11\nvalue = [[83.87]\n[79.114]]", fillcolor="#eb9d64"] ;
548 -> 549 ;
550 [label="tran_1 <= -36.5\nmse = 22.762\nsamples = 8\nvalue = [[76.151]\n[78.071]]", fillcolor="#e68844"] ;
549 -> 550 ;
551 [label="prks_1 <= -13.5\nmse = 8.387\nsamples = 6\nvalue = [[78.236]\n[79.151]]", fillcolor="#e6843d"] ;
550 -> 551 ;
552 [label="prks_5 <= -21.0\nmse = 3.841\nsamples = 5\nvalue = [[77.864]\n[80.632]]", fillcolor="#e5823b"] ;
551 -> 552 ;
553 [label="case_mil_percMax_4 <= 92.561\nmse = 0.504\nsamples = 2\nvalue = [[76.279]\n[77.862]]", fillcolor="#e58139"] ;
552 -> 553 ;
554 [label="mse = -0.0\nsamples = 1\nvalue = [[76.649]\n[78.468]]", fillcolor="#e58139"] ;
553 -> 554 ;
555 [label="mse = 0.0\nsamples = 1\nvalue = [[75.539]\n[76.649]]", fillcolor="#e58139"] ;
553 -> 555 ;
556 [label="work_1 <= -33.5\nmse = 1.689\nsamples = 3\nvalue = [[78.657]\n[82.017]]", fillcolor="#e5823a"] ;
552 -> 556 ;
557 [label="grph_2 <= -9.0\nmse = 0.527\nsamples = 2\nvalue = [[79.035]\n[84.448]]", fillcolor="#e58139"] ;
556 -> 557 ;
558 [label="mse = 0.0\nsamples = 1\nvalue = [[78.227]\n[85.081]]", fillcolor="#e58139"] ;
557 -> 558 ;
559 [label="mse = 0.0\nsamples = 1\nvalue = [[79.844]\n[83.815]]", fillcolor="#e58139"] ;
557 -> 559 ;
560 [label="mse = 0.0\nsamples = 1\nvalue = [[78.468]\n[80.802]]", fillcolor="#e58139"] ;
556 -> 560 ;
561 [label="mse = -0.0\nsamples = 1\nvalue = [[79.907]\n[72.487]]", fillcolor="#e58139"] ;
551 -> 561 ;
562 [label="grph_2 <= -5.5\nmse = 3.309\nsamples = 2\nvalue = [[64.688]\n[72.13]]", fillcolor="#e5823b"] ;
550 -> 562 ;
563 [label="mse = 0.0\nsamples = 1\nvalue = [[64.703]\n[74.702]]", fillcolor="#e58139"] ;
562 -> 563 ;
564 [label="mse = 0.0\nsamples = 1\nvalue = [[64.672]\n[69.557]]", fillcolor="#e58139"] ;
562 -> 564 ;
565 [label="work_6 <= -19.5\nmse = 59.836\nsamples = 3\nvalue = [[98.206]\n[81.052]]", fillcolor="#e99355"] ;
549 -> 565 ;
566 [label="tran_7 <= -52.0\nmse = 15.183\nsamples = 2\nvalue = [[96.86]\n[89.708]]", fillcolor="#e68640"] ;
565 -> 566 ;
567 [label="mse = -0.0\nsamples = 1\nvalue = [[98.268]\n[86.855]]", fillcolor="#e58139"] ;
566 -> 567 ;
568 [label="mse = -0.0\nsamples = 1\nvalue = [[92.636]\n[98.268]]", fillcolor="#e58139"] ;
566 -> 568 ;
569 [label="mse = 0.0\nsamples = 1\nvalue = [[100.0]\n[69.511]]", fillcolor="#e58139"] ;
565 -> 569 ;
570 [label="work_6 <= -12.5\nmse = 125.803\nsamples = 7\nvalue = [[52.99]\n[67.908]]", fillcolor="#eda774"] ;
548 -> 570 ;
571 [label="tran_6 <= -30.5\nmse = 11.632\nsamples = 6\nvalue = [[63.197]\n[64.185]]", fillcolor="#e6843e"] ;
570 -> 571 ;
572 [label="case_mil_percMax_2 <= 78.636\nmse = 3.235\nsamples = 5\nvalue = [[61.472]\n[64.957]]", fillcolor="#e5823b"] ;
571 -> 572 ;
573 [label="work_1 <= -13.5\nmse = 1.196\nsamples = 2\nvalue = [[59.143]\n[65.702]]", fillcolor="#e5813a"] ;
572 -> 573 ;
574 [label="mse = 0.0\nsamples = 1\nvalue = [[57.961]\n[66.7]]", fillcolor="#e58139"] ;
573 -> 574 ;
575 [label="mse = 0.0\nsamples = 1\nvalue = [[60.325]\n[64.703]]", fillcolor="#e58139"] ;
573 -> 575 ;
576 [label="case_mil_percMax_4 <= 71.829\nmse = 1.273\nsamples = 3\nvalue = [[63.024]\n[64.46]]", fillcolor="#e5813a"] ;
572 -> 576 ;
577 [label="mse = 0.0\nsamples = 1\nvalue = [[63.936]\n[62.575]]", fillcolor="#e58139"] ;
576 -> 577 ;
578 [label="prks_4 <= -19.5\nmse = 0.267\nsamples = 2\nvalue = [[62.568]\n[65.402]]", fillcolor="#e58139"] ;
576 -> 578 ;
579 [label="mse = 0.0\nsamples = 1\nvalue = [[62.575]\n[66.132]]", fillcolor="#e58139"] ;
578 -> 579 ;
580 [label="mse = -0.0\nsamples = 1\nvalue = [[62.561]\n[64.672]]", fillcolor="#e58139"] ;
578 -> 580 ;
581 [label="mse = -0.0\nsamples = 1\nvalue = [[71.826]\n[60.325]]", fillcolor="#e58139"] ;
571 -> 581 ;
582 [label="mse = -0.0\nsamples = 1\nvalue = [[32.577]\n[75.356]]", fillcolor="#e58139"] ;
570 -> 582 ;
}
